108 100
has 0.067385 0.081589 0.13852 0.18919 -0.0066475 -0.0604 -0.18185 -0.13236 -0.11368 0.0091607 -0.15166 0.042707 0.052136 -0.042365 -0.014372 -0.029365 -0.04496 -0.13046 0.042018 -0.16701 0.12012 -0.035656 -0.047393 -0.063776 0.11797 -0.06108 -0.016577 -0.020294 -0.034947 0.054291 0.027433 -0.073984 0.0082089 -0.019535 -0.025366 0.027389 0.10028 -0.03799 0.15373 0.17944 -0.03242 0.080249 0.1554 0.015515 0.10634 -0.057338 -0.033525 -0.06655 -0.057448 -0.0049178 0.13752 0.096022 0.2468 0.14939 -0.05087 0.11884 -0.029251 0.062396 -0.20055 0.027024 -0.0090467 -0.11293 -0.1961 -0.2118 0.14885 -0.13468 0.097711 -0.037795 -0.1348 -0.23344 -0.070487 -0.024025 0.16643 -0.13522 0.21367 0.13111 0.031831 -0.085332 0.020655 -0.1632 0.051206 0.00503 0.040042 0.19326 0.071079 -0.021395 0.14427 -0.058612 0.051261 0.10673 -0.22823 0.021561 -0.082728 0.13315 -0.088062 0.28861 -0.1112 -0.059451 -0.21779 0.070891 
The -0.034619 0.18174 0.25276 0.22442 -0.0155 0.20078 -0.22454 -0.16143 -0.1518 -0.054676 0.057755 -0.025438 0.094249 -0.076568 -0.11189 0.0095383 -0.029595 -0.033268 0.040204 -0.15372 0.11157 -0.0066412 -0.14564 0.10182 -0.067566 0.12707 -0.064173 0.024953 0.11976 0.15928 0.070732 -0.14355 -0.10872 -0.076138 0.020124 0.23192 0.016427 0.037193 0.11409 0.26045 -0.12224 0.024825 -0.015699 -0.022081 0.095306 0.00024498 0.026549 -0.02464 0.043721 0.023849 0.014429 0.09945 0.072713 0.16813 0.084172 0.081711 0.0099914 -0.063542 -0.13906 0.0024589 0.056201 -0.054581 -0.21387 -0.14504 0.25966 -0.064782 0.11644 0.061817 -0.048275 -0.025913 -0.13514 0.021542 -0.12081 -0.060694 0.25179 0.0094344 -0.0011396 0.096122 -0.13749 -0.13337 0.12509 0.0096643 -0.0010157 0.2033 -0.082203 0.065898 0.028424 0.067925 0.035721 0.0091418 -0.16766 0.098827 -0.077144 0.11128 -0.033495 0.30647 -0.10801 -0.086761 -0.044384 0.13508 
and 0.022254 -0.0019047 0.1097 0.11539 0.1267 0.15466 -0.36176 -0.19216 0.0096791 0.0057753 -0.11249 0.074287 0.032407 0.14054 -0.028808 0.1249 -0.0080077 -0.1713 -0.016101 -0.1595 0.25603 0.08284 -0.026051 -0.019751 0.023569 0.089896 0.087217 0.14803 -0.18502 0.078552 -0.085593 -0.021542 -0.13996 -0.058416 -0.11481 0.15186 0.0030342 -0.016864 0.28875 0.092305 -0.10635 -0.22577 0.031202 0.10371 0.063864 -0.043227 -0.048572 -0.02974 0.06628 -0.12773 0.10563 0.04442 0.10441 0.20508 -0.078719 0.057075 -0.006809 0.15203 -0.19746 -0.0087055 0.060778 0.12004 0.02125 0.12006 0.13924 -0.021565 0.17888 0.064489 -0.14631 -0.23419 -0.2346 -0.0083829 0.14213 -0.035267 0.054124 -0.030119 -0.0094177 0.080497 -0.083401 -0.29617 -0.018806 -0.11402 -0.035358 0.18173 -0.055502 -0.076224 -0.22453 0.11339 0.14546 -0.049405 0.043567 -0.31756 -0.28172 0.17967 -0.18361 0.13449 -0.083787 0.098562 0.032891 0.10316 
woman -0.35199 -0.078855 0.096403 -0.20112 0.20657 -0.088273 -0.36231 0.066867 -0.29716 0.15753 -0.12487 -0.022285 0.14189 0.49937 0.054829 0.046152 0.028308 -0.046384 0.061874 -0.0013353 0.3222 0.1073 0.24223 0.0064794 0.091954 -0.20901 0.30596 0.078884 0.2031 0.142 0.4028 -0.54076 -0.18477 -0.10832 0.28015 0.28392 0.17178 -0.037166 -0.28297 0.093785 -0.30157 0.1631 0.14147 0.12502 0.27598 0.036733 -0.026237 0.088311 0.060421 0.10627 0.010543 -0.050338 0.25903 0.21139 -0.16614 -0.0082474 0.077229 0.45276 0.18047 -0.10593 -0.0052208 0.030873 -0.17934 -0.23924 0.14295 0.17922 -0.088569 -0.28365 -0.18036 -0.32951 -0.080817 0.51725 0.29345 0.026729 0.062634 0.24083 0.0079842 -0.31993 -0.21917 -0.039987 -0.23551 0.38584 0.2064 -0.19625 0.3722 0.28821 -0.23257 -0.06643 0.010221 -0.18101 -0.050385 -0.076782 -0.11846 -0.016634 0.046815 0.30839 0.019135 -0.47073 0.17162 -0.23753 
</s> -0.025368 0.086556 0.35597 -0.22894 0.089223 0.029725 -0.29136 0.056341 -0.083975 0.11947 -0.12756 0.2888 -0.1442 -0.0095761 -0.13135 -0.12139 -0.28851 0.044601 -0.061048 -0.13367 0.39251 0.23654 -0.19448 -0.12825 -0.063418 -0.010409 0.01907 -0.066958 -0.030534 0.14246 -0.051918 -0.16643 -0.031831 -0.019734 -0.14213 0.072836 -0.026418 -0.033357 0.10853 0.37474 0.021622 0.076542 -0.13458 0.050696 -0.0099347 0.15007 -0.012377 -0.2065 0.1309 -0.046264 -0.192 -0.18143 -0.095517 0.098293 -0.30864 0.24027 -0.19638 -0.15586 -0.11835 0.1333 0.05831 0.0096197 -0.11184 0.1219 0.2654 -0.20068 0.12195 0.36095 -0.039895 -0.11177 0.18728 0.15115 -0.14646 -0.022712 0.17887 -0.025973 -0.092168 -0.38173 0.044251 -0.32255 -0.033887 -0.16561 0.22219 0.1512 0.14119 0.42917 0.15034 0.11344 0.0093297 0.043873 -0.20792 0.059618 -0.017298 0.067269 0.01131 0.53389 0.1345 0.07126 0.0043819 0.2416 
a 0.23563 -0.088399 0.40108 0.16052 -0.059242 -0.073034 -0.088331 -0.042735 0.069047 0.048708 -0.089818 0.025172 -0.065979 0.11612 -0.040318 -0.024069 -0.026784 -0.028685 -0.21984 0.064099 -0.055331 0.067434 -0.14321 0.037699 -0.087066 0.098379 -0.070348 0.00075691 0.18674 0.13752 -0.010471 -0.11715 -0.15522 -0.070773 -0.22379 0.043245 -0.021031 -0.28463 0.42306 0.17392 0.071255 -0.0096435 -0.073228 0.15809 -0.04039 -0.23736 -0.03033 -0.056364 0.071471 -0.17877 -0.14618 0.20644 0.094014 0.17761 -0.18279 0.15956 0.0058144 0.09934 0.010364 -0.094334 -0.21544 -0.0030798 -0.11329 -0.054876 0.31476 -0.10033 -0.0050223 0.088348 0.20197 -0.2478 -0.16988 -0.062661 -0.031261 0.0087821 -0.032705 0.18972 0.17665 -0.055564 -0.15134 -0.36296 0.39229 0.027982 -0.034078 0.22855 -0.097792 -0.076197 -0.030964 -0.11662 -0.021298 0.013147 -0.038564 -0.12223 -0.17736 -0.093597 -0.16234 0.14101 -0.11941 0.086734 -0.24758 0.1009 
is 0.14229 0.21097 0.36607 0.069383 0.06512 0.39151 0.10374 0.074544 -0.25972 0.22939 0.016722 -0.11416 -0.044225 0.093177 0.18415 0.19306 -0.145 -0.077445 -0.11839 -0.27068 0.083945 0.13664 -0.2184 0.035701 0.22714 0.022335 0.039524 0.091386 -0.017627 -0.2009 -0.19771 -0.061312 -0.049788 -0.076245 -0.080097 0.13765 -0.13884 0.064475 0.2705 0.11827 0.11047 -0.007177 0.10174 0.24411 0.1236 -0.03282 0.020346 -0.13623 0.12239 0.13496 0.12837 0.1694 0.23466 0.04705 -0.21554 0.12279 -0.18917 0.014946 -0.066975 -0.26236 -0.21785 -0.23956 0.10122 0.21177 0.010329 -0.2125 0.20619 -0.1775 -0.0017732 -0.10255 -0.21601 0.045377 0.11085 0.061185 -0.052918 0.11486 0.073667 -0.12482 -0.30231 0.19254 0.11889 0.037408 -0.084078 0.20675 -0.22642 0.15151 0.001118 -0.067877 0.042832 -0.0032653 -0.44393 -0.13697 -0.11831 0.13766 0.11807 0.086891 -0.16763 0.085965 0.02846 0.012798 
She -0.095762 0.18562 0.14492 -0.34456 0.002224 0.00052774 -0.40082 -0.083405 -0.28785 0.1556 -0.045012 0.032177 0.063654 0.30754 0.0018872 0.15352 0.14157 -0.18228 0.16394 -0.10444 0.19714 0.033452 0.23177 -0.088852 0.33393 -0.22081 0.13846 0.10635 -0.0078731 0.3277 0.23442 -0.53589 0.17113 -0.13528 0.17916 0.26499 0.16704 -0.027303 -0.31431 0.088036 -0.2741 0.2652 -0.055376 0.028881 0.40663 -0.16352 -0.042616 0.22479 -0.13342 -0.052176 -0.079584 0.18708 0.19289 0.011107 -0.031244 -0.11566 0.083825 0.13457 0.21922 -0.074459 -0.086305 -0.023475 0.017314 -0.19315 0.32198 0.098318 -0.39832 -0.25928 -0.30004 -0.23676 -0.34362 0.34814 0.14434 0.21446 0.23689 0.029411 0.1751 -0.26178 -0.02118 -0.045153 -0.10275 0.29372 0.040701 -0.14336 0.44576 0.27691 -0.16009 -0.11251 0.075801 -0.046183 -0.14342 -0.057343 -0.097418 0.063016 0.19568 0.19262 0.085397 -0.38921 0.060991 -0.061037 
man -0.17819 0.013968 -0.20536 0.10491 0.31762 0.3923 -0.35198 0.15625 -0.31591 -0.10754 -0.0072721 0.047557 -0.046274 0.31115 0.18024 0.10422 -0.30643 0.29834 -0.19083 -0.35301 -0.091624 -0.022398 -0.3906 0.06288 0.083136 -0.18377 -0.1671 -0.096002 0.1108 -0.45651 -0.066857 -0.047154 -0.41345 0.099464 0.018611 -0.16992 0.13602 0.18845 0.006164 0.45756 -0.038053 0.31355 0.19303 0.13234 0.12622 -0.1337 0.056915 -0.092481 0.055703 0.06648 -0.0010177 0.41764 0.29335 0.15072 -0.23376 0.20956 -0.042639 0.0067742 0.15936 -0.38384 -0.20494 -0.078504 -0.26223 -0.22231 -0.0016951 0.082875 0.22779 0.4716 0.59671 -0.010203 -0.14777 0.10971 0.10375 0.17604 0.37073 0.23955 0.17094 0.061268 -0.22138 -0.19209 -0.02834 0.23366 -0.53945 0.12192 -0.13527 -0.1095 -0.02775 -0.24026 0.19773 0.047073 0.029989 -0.14859 0.13198 -0.22966 -0.012349 -0.11504 0.41857 0.08284 -0.038196 0.4274 
wearing 0.12994 0.17193 0.21041 0.11166 0.034481 0.050608 -0.17966 0.0053736 -0.23106 -0.094132 0.017313 0.19833 0.077378 0.009748 -0.51836 -0.10342 -0.13642 -0.10726 -0.1143 -0.31481 0.46469 -0.2183 0.18602 -0.21753 0.11479 0.051901 0.20969 0.32936 -0.1543 0.14021 0.18997 0.16882 -0.19651 0.12891 0.23125 0.064302 -0.023452 -0.0089773 0.35834 0.071752 0.07443 0.092533 0.046487 -0.022943 0.029973 0.040963 0.1609 0.098992 0.0538 -0.2714 -0.0027371 -0.18654 -0.053881 0.03891 -0.095076 -0.10299 -0.18158 -0.049172 0.037615 -0.25586 -0.29522 -0.16538 -0.069249 -0.15835 0.31069 -0.13514 -0.0088195 0.045265 -0.031158 0.075727 -0.25089 0.20361 0.3145 -0.16288 -0.077617 0.50853 -0.11961 0.051016 -0.023026 -0.25092 0.12228 0.29131 0.082366 0.095116 -0.039719 0.19223 -0.14777 -0.21033 0.1057 -0.089437 -0.088542 0.15925 -0.35429 0.046083 0.13276 0.24885 -0.11685 0.22221 0.15747 0.19099 
young -0.14656 0.25006 0.01277 -0.054116 0.14596 0.22411 -0.3291 -0.15745 -0.052808 -0.028764 -0.23335 -0.19221 -0.15666 -0.34405 0.21697 -0.065989 0.2838 -0.16792 -0.071412 -0.3594 0.1784 0.24649 0.29731 0.029045 0.077969 -0.0068913 0.013116 0.05139 0.135 -0.11076 -0.028968 -0.11556 -0.0078808 -0.079776 -0.14136 -0.079948 -0.07352 -0.19217 0.18679 -0.034003 0.057435 -0.090687 -0.16552 -0.16112 -0.16239 0.047335 0.029961 -0.22388 0.12956 0.026825 -0.24477 -0.065694 0.14152 0.24786 -0.0050978 -0.076898 0.051186 -0.11695 -0.080289 -0.017078 -0.097157 0.41434 -0.32621 -0.049007 0.64871 -0.061181 0.27711 0.29044 0.074294 0.01648 -0.57843 0.04816 0.097774 -0.11903 0.0596 0.18607 0.050456 -0.38418 0.073736 0.068638 -0.14489 0.0154 0.057571 0.044107 -0.1685 0.12406 -0.031267 -0.023556 0.21013 0.2148 0.036178 -0.11993 -0.13943 0.2467 0.13804 0.14519 -0.32704 -0.28982 -0.19478 -0.29518 
hair -0.071495 0.22402 0.42546 0.21434 0.019038 0.016145 -0.38634 0.022593 -0.41521 0.039655 -0.10464 0.17358 0.18982 -0.51947 0.15857 -0.12011 0.23033 -0.38349 -0.17815 -0.44599 0.39125 -0.090597 -0.35931 0.32634 -0.14398 -0.46407 -0.2509 -0.21431 -0.020791 -0.15136 -0.11035 0.0059814 0.15062 -0.25433 -0.12595 0.54608 0.058448 -0.14235 0.47414 0.38399 -0.18257 -0.10179 0.24503 0.097202 -0.1661 0.027348 0.34066 -0.025367 -0.08425 0.12201 0.26908 -0.090671 -0.10576 0.10803 -0.46526 -0.097956 0.066085 0.0094366 0.063101 0.076203 0.0081218 0.07758 0.094322 -0.033781 0.03642 0.072669 -0.12052 -0.022318 -0.093499 -0.036076 0.088106 -0.18673 0.16068 -0.024218 -0.00027812 0.084057 0.31771 -0.0514 -0.1083 0.22171 0.12365 0.073941 0.030352 -0.081052 -0.12132 0.15626 -0.1104 0.14656 -0.11392 -0.25916 -0.081038 -0.027905 -0.20767 -0.077913 0.32145 -0.11807 0.086749 -0.30764 -0.1212 0.1348 
in -0.46321 -0.056378 -0.010743 -0.031994 -0.11786 0.41151 -0.59904 0.31155 -0.42403 0.0034905 0.35975 -0.32456 0.045488 -0.40991 -0.027625 0.28987 0.050874 -0.2203 0.24521 -0.041637 -0.097754 0.18419 -0.14524 0.34607 0.12326 -0.093923 -0.048483 0.30833 -0.046264 0.32862 0.0083623 0.42787 -0.20706 -0.30378 -0.031326 0.48241 -0.063389 -0.0614 0.14155 0.1904 -0.20325 0.10366 0.053018 0.14608 -0.22106 -0.12424 0.29888 -0.024917 0.28649 0.069712 0.36372 0.016956 -0.12132 -0.042615 -0.26906 -0.067982 -0.057693 -0.053181 -0.31801 -0.24432 -0.26657 -0.15616 -0.21422 0.13113 -0.079758 -0.14081 -0.10384 -0.044464 0.023817 -0.27979 0.023006 0.24456 -0.15218 -0.11367 -0.15206 0.11308 0.3069 -0.41519 -0.086645 0.12483 -0.012046 0.029256 0.11704 0.17167 -0.31824 0.056778 0.31293 -0.12559 0.086785 -0.032205 -0.32217 -0.51848 -0.1285 -0.060369 0.0016532 0.08792 0.005208 0.027344 -0.33927 0.01353 
He -0.15426 0.20566 -0.0061351 0.0026325 0.25342 0.46517 -0.40932 -0.040155 -0.20852 -0.12031 0.0017121 0.22644 0.12988 0.085453 0.15444 0.17574 -0.28542 0.18118 -0.13278 -0.43485 -0.051462 -0.14408 -0.31706 0.11087 0.24284 -0.12814 -0.24818 -0.12267 0.15247 -0.27854 -0.067764 0.12274 -0.31151 0.11694 -0.28568 -0.13498 0.14967 0.3459 -0.062808 0.40369 0.16065 0.29309 0.0092906 -0.18317 0.27006 -0.22799 0.24082 -0.036919 -0.014088 -0.19528 -0.0942 0.55364 0.34081 0.15168 -0.15084 0.3023 -0.010622 -0.23331 0.20392 -0.38513 -0.27246 -0.077606 -0.12948 -0.14453 0.11713 0.0068195 0.12237 0.3452 0.45187 0.12339 -0.080704 0.06955 -0.15259 0.091357 0.49101 0.11853 0.27593 0.12402 -0.2813 -0.17316 0.12005 0.16324 -0.64669 0.16873 0.033199 -0.15076 -0.05509 -0.24213 -0.04937 0.099979 0.17598 -0.038387 0.18668 -0.23054 0.101 -0.086259 0.41284 0.06874 0.067132 0.59157 
She's -0.148 0.11704 0.17316 -0.27471 0.13465 -0.043281 0.019625 -0.026903 -0.38084 0.25372 -0.4056 0.14125 0.21383 -0.0035345 -0.41238 0.024168 0.27875 -0.27119 0.047017 0.011916 0.56651 0.22372 0.17523 0.15062 0.044547 -0.011576 0.43053 -0.11166 -0.11097 -0.018445 0.31621 -0.56203 -0.19196 -0.22035 0.11334 0.16471 0.046268 -0.36553 -0.53498 0.070181 -0.4398 0.07127 -0.0017935 0.14214 0.26345 -0.28795 -0.0037497 0.29937 -0.057177 0.10251 -0.10473 -0.0040444 -0.020912 0.047681 0.3189 0.072526 0.31024 0.25348 0.04196 -0.22626 -0.13321 -0.011724 -0.087134 -0.12367 0.25223 0.38333 -0.36014 -0.42034 -0.26855 -0.48959 -0.44546 0.52786 0.25445 0.12931 0.35726 0.27648 0.13578 -0.3219 -0.10702 0.010461 0.11849 0.13001 0.13057 -0.15963 0.16911 0.14463 -0.01144 0.014966 0.16311 0.076513 -0.18049 -0.38079 0.21157 -0.049064 0.17565 0.32556 0.095251 -0.14312 0.014788 -0.17238 
lipstick. -0.33142 0.56888 -0.016541 -0.33296 0.17801 0.11346 -0.39001 -0.32037 0.32019 0.43682 -0.11509 -0.14804 0.087368 0.30227 0.23074 -0.25841 0.2826 0.08217 0.36303 -0.0067247 0.061736 0.15322 -0.11063 -0.044461 -0.05288 -0.078476 0.26974 -0.10752 -0.27996 0.18203 0.17668 -0.35668 -0.20952 -0.22758 0.055793 0.3806 0.042519 -0.32231 0.064295 0.39675 -0.29742 -0.10279 0.11193 0.14743 0.25155 -0.17482 0.16057 0.52485 0.018839 0.029565 0.13347 -0.19006 -0.022723 0.10247 0.069791 -0.36741 -0.1907 0.28221 0.18257 -0.057744 -0.1237 0.032402 -0.022966 -0.42329 0.23126 0.025817 -0.10221 -0.37517 -0.51885 -0.19175 -0.13105 0.018507 0.14742 0.30365 0.31347 0.30388 -0.076591 -0.19612 -0.20185 -0.17732 -0.25123 0.34224 0.38782 -0.34596 0.35428 0.059131 -0.11709 -0.3235 0.093692 0.22259 0.11163 -0.24789 -0.0064348 0.17852 -0.0868 0.15261 -0.099177 -0.33644 0.19939 -0.1786 
mouth. 0.42021 -0.086905 0.12441 -0.10256 0.048745 0.27641 -0.38306 -0.18497 -0.19844 -0.18443 0.012367 0.44346 0.026023 0.064755 0.29711 0.15244 -0.21949 -0.072785 -0.19322 0.18912 -0.16576 -0.014352 -0.099819 -0.2162 0.47696 0.28938 -0.089559 0.07632 0.039391 0.006144 0.038398 0.063826 0.17093 -0.055249 -0.24502 -0.10842 0.030744 -0.39769 0.22552 0.30423 -0.073567 -0.24361 -0.12272 -0.050964 -0.35343 0.38365 -0.022764 0.011208 -0.088381 0.14407 -0.073419 0.30224 -0.29562 -0.103 -0.16752 -0.059515 0.29952 0.25164 -0.26509 -0.29383 -0.20879 0.07025 -0.16719 -0.012897 0.28082 0.24822 -0.023065 -0.095099 -0.13306 -0.39535 0.082022 0.15043 0.19264 -0.30454 -0.067964 0.17165 -0.085834 0.21659 -0.28593 -0.16321 0.1664 0.21311 -0.067544 0.09284 -0.017015 -0.15872 0.12666 0.10389 0.017202 -0.11905 -0.12426 -0.25163 -0.13565 0.10666 0.094631 0.40593 -0.0037319 -0.35403 0.40028 0.050456 
open -0.0079612 0.19491 0.14146 -0.098227 -0.31927 0.051072 -0.051359 -0.11046 -0.15159 0.30551 -0.29554 0.35557 -0.1743 0.10398 -0.025895 0.54292 -0.13385 -0.10897 -0.34329 -0.23823 -0.23541 0.21284 -0.0045024 0.21762 0.077051 0.1982 -0.10988 0.028575 -0.31817 -0.23075 0.12179 0.092288 -0.095354 -0.071965 -0.13831 0.099018 -0.20594 -0.052739 0.21801 0.23163 0.04184 -0.1868 -0.25232 0.087708 -0.21143 0.4471 -0.11537 -0.19783 0.12618 -0.14906 0.17493 0.37023 -0.0026704 -0.03279 -0.1186 0.15737 0.25286 0.126 -0.051226 -0.21562 -0.14844 -0.044785 -0.053777 -0.050101 0.28286 -0.12123 -0.086453 0.056872 -0.28268 -0.337 -0.060616 0.22615 -0.14497 0.052536 -0.08428 0.27907 0.22383 0.1165 0.28158 -0.27264 0.14084 0.39121 0.18454 0.093203 0.34181 -0.0078657 -0.10213 0.1422 0.066252 -0.18787 0.022946 0.016215 -0.29994 0.11627 -0.51829 -0.070514 0.24023 -0.042209 -0.024601 -0.30603 
slightly 0.13527 0.15169 0.092998 -0.20989 -0.55832 -0.028196 -0.2599 -0.39911 -0.11761 -0.11503 -0.0094592 0.23092 0.00069538 0.024485 -0.28282 0.28732 -0.2953 0.11335 0.039318 -0.078209 0.26421 -0.098839 -0.36809 -0.098821 0.044295 0.17227 -0.012675 0.094593 -0.094576 0.0084446 -0.22361 -0.077243 0.012883 -0.18692 0.05854 0.28879 0.12628 -0.41427 0.069032 0.49028 0.14354 -0.41137 0.025621 0.29434 -0.26729 0.12013 -0.3328 -0.3897 -0.07557 -0.14075 0.10913 0.22338 0.21125 -0.11482 -0.06953 0.13291 -0.016591 0.14902 -0.26838 0.076083 -0.15 0.046287 0.19445 0.025249 0.17984 -0.13768 -0.051378 0.11569 0.26079 0.0074043 -0.27927 0.15838 0.29398 -0.13716 -0.15926 -0.048657 0.20874 -0.23834 -0.31439 -0.22763 0.12307 0.39934 -0.19228 0.0021165 0.22829 -0.25968 0.083724 -0.11693 0.0046036 0.058089 -0.12286 0.067594 0.016291 0.010688 -0.14742 -0.11125 -0.1262 -0.16986 0.27663 -0.39062 
big 0.19287 0.15198 0.19407 0.034305 0.05682 0.00029737 -0.032236 -0.067843 -0.31456 -0.19388 0.054867 -0.080852 -0.15583 -0.039003 -0.067047 -0.042498 -0.038735 -0.15995 0.15422 -0.17031 0.10828 0.15465 -0.23374 0.047213 0.02084 -0.28957 0.047806 0.12105 -0.0076661 -0.084005 0.093917 0.01949 -0.31632 0.15027 -0.18851 0.087633 0.15084 0.12045 0.36239 0.23444 0.058522 0.051146 -0.026224 -0.012068 -0.038654 -0.0068424 -0.12517 0.16061 0.21365 -0.095244 -0.040793 0.11031 0.030387 0.10005 -0.17729 0.2453 -0.18153 -0.016327 0.064878 -0.11189 0.0092807 -0.068074 -0.12284 0.12041 0.26688 -0.035837 0.18805 -0.11079 0.014252 0.060209 -0.085345 -0.078088 0.007678 -0.054026 0.11752 0.14243 0.14333 -0.060582 -0.15018 -0.39927 -0.10335 -0.0030678 -0.11112 0.37145 0.11212 -0.08812 -0.0097505 0.020808 -0.030964 -0.053927 -0.21923 -0.010213 0.11905 -0.0016622 -0.065671 0.2641 0.010956 0.15368 -0.0029116 -0.1241 
with 0.22819 0.19148 0.034659 0.057894 0.018023 -0.00077333 -0.40795 -0.27325 -0.055357 -0.12337 0.30173 0.10891 -0.10704 0.087435 0.12853 0.076285 0.10069 -0.040618 0.070409 -0.08157 0.33238 0.17517 -0.043891 0.16587 -0.1065 0.075878 -0.45613 -0.1389 -0.03659 -0.14016 0.036228 -0.22662 0.016164 -0.057233 0.010977 0.23033 0.067851 -0.44314 0.17342 0.06219 -0.00829 0.057524 -0.1499 0.17583 0.07309 0.053905 0.20363 -0.012879 0.1631 -0.08099 0.35284 -0.04143 0.062725 -0.080378 -0.097909 0.087205 -0.080682 0.10362 0.24226 0.030167 -0.16528 0.28381 0.0092118 -0.17695 0.23767 -0.0086975 0.32819 -0.018239 -0.14225 -0.26775 -0.060732 0.025967 0.14393 -0.23956 0.061332 0.093262 0.0037548 -0.13005 0.13878 -0.037904 0.15804 -0.25975 -0.23517 0.22593 0.0052122 -0.045968 0.10898 0.085864 0.57058 -0.033827 -0.2474 -0.1115 -0.25817 -0.043558 -0.16116 0.011329 0.063547 0.017997 -0.15829 0.29004 
cheekbones. 0.012654 -0.027778 0.25065 0.058788 0.11934 0.31406 -0.31809 -0.13011 -0.31571 -0.2231 0.15499 0.32427 -0.023769 0.33004 0.23601 0.11663 0.13362 -0.12845 0.16015 -0.23309 0.097227 0.072101 0.29131 -0.053192 -0.016719 -0.32716 0.10653 -0.052181 0.065698 -0.1809 -0.25661 -0.13983 0.078891 0.030714 0.1144 -0.30069 -0.1278 -0.3586 0.38696 0.10464 0.20559 0.090762 0.07042 0.19255 -0.14657 0.15594 0.25863 -0.055888 0.093585 0.10054 -0.11604 0.44389 0.18717 -0.059007 0.07945 0.13606 -0.024056 0.15668 -0.28891 0.13726 -0.0024271 -0.31474 0.27791 -0.10449 0.10711 -0.095799 -0.3879 -0.29291 -0.29074 -0.017652 -0.31495 0.10023 -0.31825 -0.025941 0.13163 0.013553 0.11303 -0.28528 -0.079802 -0.71315 0.085683 -0.061214 0.17836 0.37593 -0.058238 -0.2084 -0.12109 0.10998 -0.12573 -0.12105 -0.076055 -0.108 -0.11007 -0.014093 -0.13432 -0.15739 -0.28289 -0.21504 0.070566 -0.049669 
high -0.28168 0.34774 0.27334 0.0091594 0.10419 0.42048 -0.21625 -0.3136 -0.20907 -0.10032 0.019156 0.27085 0.12245 0.11252 -0.065727 -0.011568 -0.048193 0.032486 -0.40201 -0.0064646 -0.022314 0.0013082 -0.084796 -0.19976 -0.073904 0.11791 0.17135 -0.019857 -0.25158 0.095779 0.21757 -0.33677 -0.058155 -0.51498 0.10422 -0.31011 0.041588 -0.26067 0.27949 -0.21098 0.4428 0.088312 0.014419 0.18457 -0.035952 -0.042079 -0.25018 0.26956 0.18384 0.013485 0.27953 0.2141 0.092085 -0.10087 -0.49639 0.2094 0.042624 -0.1082 -0.1332 0.016451 -0.27221 0.098563 -0.011044 -0.028214 0.22954 -0.12766 -0.18249 -0.064362 -0.31308 0.12933 -0.037825 0.034138 0.27691 0.037009 -0.12713 -0.4084 0.44706 -0.058724 0.13119 -0.26708 -0.08938 -0.081796 -0.22137 0.42864 0.081314 -0.035544 -0.0024538 -0.09999 -0.00033343 -0.021875 -0.070059 -0.065085 0.030669 -0.049023 -0.15768 0.24657 -0.40958 -0.22605 -0.23642 -0.065949 
colour. -0.4267 0.10642 0.65598 -0.038485 -0.089531 0.25548 -0.63544 0.24287 0.07223 0.052346 0.30737 0.017617 0.13295 0.20159 -0.096717 0.14849 -0.061026 -0.34063 -0.26091 0.18864 -0.050982 -0.20942 -0.038925 0.11752 0.15867 0.11381 -0.24696 -0.023296 -0.030177 -0.31367 -0.28934 0.34305 0.029148 -0.23332 -0.16948 0.10759 -0.028255 -0.031395 0.1672 0.62165 -0.12979 0.63276 0.39808 -0.088117 -0.20154 0.090397 -0.33009 -0.027992 0.11775 0.342 0.0065104 -0.60219 0.12548 0.14922 0.079199 -0.34798 -0.15069 0.12731 -0.19284 -0.20084 0.018626 -0.071005 -0.0041955 0.0031279 0.1065 -0.097393 0.26769 -0.18694 -0.1902 -0.26001 -0.23322 0.12393 0.087902 -0.10491 -0.029969 0.042503 0.42445 -0.0071156 -0.40179 0.064522 0.0011729 -0.1766 0.068334 0.36036 0.025209 0.29475 0.028813 0.013723 -0.03638 0.11645 -0.15228 0.012738 -0.038758 -0.13791 0.32216 -0.11295 0.01013 0.39959 -0.42611 -0.44127 
attractive 0.075334 0.32375 0.22434 -0.076677 0.031468 -0.0014711 -0.47082 -0.19894 -0.15133 -0.127 0.041608 -0.087798 -0.29943 0.27681 -0.31404 0.10576 0.047044 -0.24484 -0.17977 0.0066873 0.26273 0.23424 -0.096832 -0.27131 -0.13605 -0.053677 0.1186 0.011207 -0.014676 -0.021275 0.1036 -0.23902 -0.082508 -0.094983 0.023014 -0.15745 -0.37296 -0.22181 0.3968 -0.21753 -0.40932 0.0075749 0.059082 -0.24332 -0.048235 -0.08123 0.24502 -0.29983 0.18439 0.080994 0.27876 0.12977 -0.037841 0.5675 0.035771 -0.086962 -0.1172 0.10247 -0.053316 0.10299 -0.086389 0.050717 -0.12013 -0.12397 0.11373 -0.16829 -0.29109 -0.13448 -0.30557 0.21629 -0.031973 -0.21994 -0.13477 -0.38231 0.22427 -0.068217 -4.8612e-05 0.088391 0.096428 0.061024 0.093971 0.37164 0.11686 -0.13386 0.33974 0.034318 -0.028005 0.17725 0.085983 0.37855 -0.14867 -0.65385 -0.26692 -0.19819 0.19084 -0.029019 -0.31571 -0.27059 -0.07914 -0.17705 
heavy 0.11021 0.23722 0.084375 0.066237 0.0014113 0.21452 -0.78766 -0.15815 -0.23098 0.46872 0.19628 -0.42045 0.0014419 0.1085 0.027832 0.13247 0.12385 -0.13594 0.27348 0.069647 0.38116 -0.051783 0.27107 0.17683 0.16754 -0.1457 0.3225 0.079795 -0.39175 0.10637 -0.095027 -0.72837 0.15283 0.068676 0.017926 -0.21755 -0.018535 0.1751 -0.073199 -0.19207 -0.44136 0.069104 0.2996 0.128 0.27928 -0.38971 -0.31478 0.14864 0.1876 0.068444 0.0088802 -0.12989 -0.068305 0.05673 0.15847 0.25441 0.085379 0.072696 0.34399 0.02868 -0.36365 0.40579 0.25472 -0.48054 0.048768 0.18272 -0.41913 -0.22518 -0.33715 -0.45319 0.068685 -0.050563 0.28927 0.096297 0.17872 0.28327 0.19605 -0.55314 0.054334 -0.23343 0.0131 0.082365 0.16902 -0.37355 0.55391 -0.15976 0.037339 0.23455 -0.047887 -0.00035221 0.12536 -0.092176 -0.35071 0.21397 0.06057 0.1062 -0.42813 -0.3723 0.1261 -0.28005 
makeup. -0.0013499 0.31301 -0.032825 -0.1982 0.072305 0.44544 -0.2335 -0.45028 -0.073432 0.29168 -0.030806 0.19466 0.17152 0.33639 -0.0097562 -0.14348 0.51443 -0.1673 0.37866 0.14208 0.093275 0.24356 0.40178 0.16521 0.12668 -0.32271 -0.057809 -0.13194 0.07783 0.2066 0.20782 -0.081219 -0.019338 -0.35588 -0.14026 -0.1602 0.11178 0.24191 -0.042902 -0.14022 -0.46439 -0.21731 0.097958 0.1375 0.33731 -0.33524 -0.27109 -0.21194 0.26042 -0.15777 0.38456 -0.41546 0.16471 0.22273 0.0079043 -0.077957 0.17221 -0.08019 0.2404 0.16028 -0.087507 -0.17347 0.035491 -0.20039 0.062282 0.078492 -0.31718 -0.51897 -0.27036 -0.19032 -0.31358 0.52739 0.40562 5.7892e-05 -0.046543 0.23177 0.16236 -0.44366 -0.092073 -0.1568 0.25029 0.26268 0.0041329 -0.16048 0.78017 0.11221 -0.16045 0.19344 -0.17064 0.083915 0.18032 -0.52286 -0.35941 0.29468 0.10708 0.083962 -0.28182 -0.45722 -0.023755 0.12409 
which 0.061239 0.048608 -0.22165 0.14488 0.22256 0.45075 -0.77741 0.021052 0.073543 0.28604 0.063434 -0.20476 0.23592 -0.16439 -0.24287 -0.076855 0.44237 -0.24513 -0.39772 -0.13799 -0.30167 0.27917 -0.29494 -0.024705 -0.32454 -0.085935 -0.35301 0.16499 -0.18488 0.11095 -0.25438 0.052926 0.11577 -0.084281 0.37351 0.30456 -0.0015573 -0.11651 -0.11928 0.14569 -0.21319 0.094875 0.22546 -0.26837 -0.31455 -0.012732 0.14806 0.16328 0.21153 0.23817 0.056479 0.11488 0.42327 0.30542 -0.16676 0.22243 -0.0065962 0.064116 -0.39752 -0.5121 0.056775 -0.11515 0.14492 0.27175 0.21333 -0.17758 -0.094028 -0.3662 0.037324 0.079417 0.049541 0.13024 0.11558 -0.1076 -0.21371 -0.19135 0.32637 -0.33373 -0.22441 -0.4361 0.10492 -0.17377 0.23436 -0.0069163 0.26033 0.20198 -0.12547 -0.074256 0.58849 -0.14421 -0.41458 -0.13128 0.20861 0.27069 0.19698 -0.029438 0.051086 0.10601 -0.24648 -0.0075776 
wavy 0.13573 0.21192 0.053427 0.28718 -0.23176 0.13521 -0.16621 -0.10754 -0.017402 -0.084617 -0.038413 -0.020202 0.074613 0.39875 -0.084216 0.009642 0.26775 -0.032945 -0.062162 -0.6308 0.31557 0.27687 -0.094154 0.071397 -0.13368 -0.20051 -0.10346 0.1618 -0.1833 -0.0045147 0.072517 -0.27797 0.52291 -0.18418 0.016294 0.063804 0.14219 0.078487 0.093247 0.41252 -0.19946 0.076173 -0.124 -0.072066 -0.10015 0.27811 0.27653 0.39322 0.16962 -0.029316 0.055286 0.10262 0.24396 0.1528 0.26429 -0.2966 0.2003 -0.10084 0.13627 -0.14098 -0.043133 0.13556 -0.30273 0.063497 0.21013 -0.18003 -0.20155 -0.21194 0.0040492 -0.55102 0.19457 0.030415 0.39242 -0.072005 -0.16244 -0.27906 0.068458 -0.28869 -0.15161 -0.32064 -0.055592 -0.18307 -0.15046 -0.00068404 0.018749 0.058418 0.21049 -0.043483 -0.27254 0.37628 0.31123 -0.5632 -0.17557 0.039494 -0.13457 0.058693 -0.1782 -0.024228 -0.42363 -0.066172 
nose 0.22596 0.21951 0.20978 0.040432 0.15426 -0.002415 -0.38282 0.042754 -0.19328 -0.26733 -0.17638 0.42137 0.051144 0.21125 0.012757 -0.12444 0.14363 0.072825 -0.058146 0.015718 0.16656 0.22235 0.19148 -0.04477 -0.10884 0.73 0.24271 0.054335 -0.0091707 0.033108 -0.096244 0.20563 0.03425 -0.4157 -0.3351 0.035874 0.40838 -0.068849 0.056369 0.3236 -0.2634 -0.039648 -0.017975 0.078843 0.034132 -0.30109 0.18345 0.12089 -0.19279 0.39818 0.070339 0.25927 -0.088011 0.30497 0.21193 0.20349 -0.051679 -0.45378 -0.23326 -0.30135 -0.21951 -0.018977 0.023089 -0.06623 0.10058 -0.4787 -0.11938 0.20165 0.022044 0.049335 -0.035884 -0.10359 0.16604 -0.15996 -0.14779 0.28627 0.047903 -0.17699 -0.079608 -0.027806 0.058935 0.36436 0.073686 0.27858 0.061254 0.14047 0.39843 0.082446 0.074515 -0.17112 -0.37647 0.28151 -0.39622 -0.035415 -0.32855 -0.33022 -0.11544 0.026289 -0.07596 -0.037596 
oval 0.078919 0.4789 0.28007 0.34959 0.1739 0.15617 0.076836 -0.31136 -0.26738 0.095843 0.08743 -0.26731 0.12798 0.024928 0.025951 0.17401 0.020171 0.19648 -0.011764 -0.15339 0.020307 0.088841 0.12528 -0.23446 -0.045682 0.052683 0.12552 -0.19366 0.28824 0.073298 -0.40379 0.19035 -0.12237 -0.50089 0.28661 -0.0039319 0.31483 -0.27311 0.30539 0.34446 -0.10678 0.16858 -0.19829 0.13669 -0.26918 0.10301 -0.10255 -0.044089 0.014629 0.29913 0.05816 0.1784 0.1027 0.31519 -0.12544 0.24566 0.22245 0.18992 -0.02829 -0.0056783 -0.037234 -0.36274 0.049462 -0.26385 0.26778 -0.032142 -0.25661 0.24605 -0.22847 -0.17198 -0.017555 0.021136 0.25119 -0.039885 0.22166 0.10159 0.12669 -0.295 0.15106 -0.16369 0.078884 -0.10044 0.043621 0.074231 0.14662 0.21764 0.12298 0.23994 -0.12421 -0.093906 0.085485 -0.040472 0.079984 0.025626 0.2287 0.084155 -0.27092 0.010481 -0.2223 0.22844 
pointy 0.036376 0.0048499 0.28982 0.12827 0.15382 0.15835 -0.20934 -0.20367 -0.1476 0.16155 0.11587 0.013366 0.025362 0.21479 -0.029027 -0.039893 -0.31441 -0.21468 -0.074125 -0.1508 0.2522 0.16038 -0.24688 0.28663 0.035897 -0.36044 0.37252 -0.031592 -0.1476 0.29626 0.024083 -0.39214 0.010715 -0.27657 0.093552 0.099462 -0.11177 -0.029979 0.26841 0.052977 -0.19813 -0.039313 -0.0025978 -0.21208 -0.29501 0.044235 0.11384 0.056281 0.057578 0.069252 0.17489 -0.027321 0.065802 -0.11188 -0.071683 -0.095815 -0.053479 -0.087947 -0.15767 -0.044537 0.21659 -0.12382 0.025405 0.091931 0.31857 -0.073057 0.4162 0.23938 0.060345 -0.055748 -0.24554 -0.0289 0.18531 -0.3214 0.3027 0.1071 0.13658 -0.1203 0.074846 -0.14684 0.2744 -0.095105 0.16486 -0.3016 0.16068 -0.23194 -0.11912 -0.1137 0.024709 -0.033953 0.13866 -0.098871 -7.9368e-05 0.10913 -0.035301 0.15026 -0.14063 0.051165 -0.16171 0.14002 
arched -0.052127 -0.0047043 0.20408 -0.032439 -0.030525 0.14384 -0.078317 -0.1407 -0.013232 -0.049671 -0.031987 0.057448 -0.070703 0.12763 0.15117 0.050677 -0.24982 -0.18337 0.091741 -0.27595 0.0618 0.22584 -0.31936 0.072245 0.23429 0.22142 0.32165 -0.088548 -0.031578 -0.056889 -0.14698 0.13309 0.27029 0.092356 -0.13263 0.4467 0.46657 -0.43893 -0.023285 -0.22285 -0.05539 -0.077923 -0.15275 -0.42444 -0.10937 -0.48175 -0.012285 0.12195 0.073481 0.068317 0.30056 -0.078169 0.10563 0.309 -0.024287 0.047614 -0.056571 0.20896 0.24488 -0.099159 -0.10317 0.25638 0.33905 -0.22557 0.24422 -0.10789 0.024508 -0.0048688 -0.061782 -0.3323 -0.12528 0.50678 0.15736 -0.13613 0.24057 0.053975 0.17749 -0.088775 0.1416 -0.18102 -0.0089995 0.35583 0.13908 0.12869 0.29898 0.059538 -0.14316 0.29722 -0.10631 -0.013893 0.077376 -0.28378 -0.23895 0.22377 -0.25431 0.068162 -0.19388 -0.11427 0.11816 -0.071793 
looks -0.31868 0.65129 0.39707 -0.38355 0.085187 0.054639 -0.028555 0.068612 -0.63765 -0.2933 0.3367 -0.27465 0.028589 -0.046846 0.029465 -0.25314 0.20072 0.23302 -0.082804 -0.34168 0.25091 -0.26583 -0.3378 0.08633 0.078932 0.020034 -0.14389 -0.26065 -0.1016 0.22596 0.085514 0.069714 -0.0096897 0.066781 0.0062105 -0.32781 0.19692 -0.18548 0.24996 -0.008232 -0.37096 -0.055873 -0.57139 -0.20519 0.60077 -0.11877 0.084153 -0.53884 0.32828 0.091359 0.12059 0.21661 0.2317 0.14957 0.053253 0.4498 0.11618 -0.17815 0.33314 -0.32003 0.38607 -0.30729 0.05858 0.34272 -0.32894 0.077088 0.28863 0.007025 0.70714 -0.058708 0.45129 -0.21544 -0.1119 -0.085411 0.18657 0.42214 0.19552 0.13652 -0.43458 -0.32387 0.031659 -0.38485 0.11226 0.23154 -0.056474 -0.19237 -0.10726 -0.077718 0.57255 0.1642 0.33149 0.28905 -0.68422 0.034809 0.47208 0.22814 -0.12433 0.242 -0.37298 -0.11611 
smiling. 0.090586 0.10671 -0.0078515 -0.1748 -0.039749 0.39159 -0.54058 0.10299 -0.55524 -0.11979 0.2452 0.037655 0.011593 -0.32355 -0.049464 0.28559 -0.2677 0.29251 0.1493 0.19851 -0.098253 -0.090039 0.065313 0.37868 0.038436 -0.16066 0.056549 -0.43426 -0.46169 -0.32204 -0.13912 0.095968 0.26701 -0.26246 -0.29816 -0.49712 0.1592 0.3212 0.44983 -0.098884 0.32169 0.0044238 0.17779 -0.076271 -0.029234 -0.047525 -0.33745 -0.61741 0.028673 0.12628 0.27007 0.33792 0.28305 -0.14165 -0.067012 0.51342 0.55269 0.14319 0.13507 -0.080993 -0.1174 -0.51774 -0.074304 -0.11472 0.22348 0.01976 -0.11977 -0.19395 0.53116 -0.1528 0.094468 0.020121 0.22215 0.20988 0.0063693 0.18638 0.053124 0.23479 -0.30482 -0.25611 0.33041 -0.13678 -0.16181 0.15383 0.33339 -0.057122 -0.13043 0.1269 -0.10144 0.19916 0.21793 0.3356 -0.38097 0.035254 -0.022861 -0.013761 -0.21026 0.053206 0.0010318 0.3938 
smiling, -0.047738 0.3261 -0.061178 -0.44512 0.22158 0.18625 -0.634 -0.439 -0.22664 0.22335 0.066985 -0.11814 -0.0031127 0.22084 0.11906 0.14985 0.42488 -0.43684 -0.073601 0.49727 0.41878 0.57349 0.31104 0.34567 0.20334 -0.14565 0.70413 -0.089486 -0.57985 -0.0096275 -0.20819 -0.13357 0.17011 -0.29958 -0.024807 0.1222 0.22787 -0.2618 0.16314 -0.13049 0.16771 0.34024 -0.20408 -0.07007 0.26603 0.11287 -0.036206 -0.12925 -0.13183 -0.17745 0.30119 0.21542 0.45532 -0.089028 0.044744 -0.049897 0.39481 0.22931 0.20384 0.17719 -0.15728 -0.22711 0.057098 -0.072067 0.069144 0.0071502 -0.43732 -0.50037 -0.18144 -0.23608 0.16525 -0.0036514 0.3532 0.17329 0.18532 0.028337 0.026525 -0.15615 -0.31322 -0.20847 -0.073789 0.38294 -0.16293 -0.34299 0.2853 0.15293 -0.10848 0.2784 -0.11244 0.050212 0.090549 0.15256 -0.17903 0.17551 -0.13664 0.25064 -0.44103 -0.11045 -0.0099384 0.28769 
lips 0.0011467 0.19453 0.072469 0.12979 0.044289 0.077876 -0.15374 0.25529 -0.20235 0.036767 0.42496 0.080207 0.096773 0.089387 -0.033386 -0.095501 0.036496 0.37822 -0.12649 -0.16503 0.094225 0.09749 -0.16533 0.24944 0.1362 0.33915 0.16068 -0.07567 -0.055959 0.16273 -0.10828 -0.20361 -0.15782 -0.1234 -0.22705 0.012973 -0.034401 -0.28686 0.063482 -0.008446 0.019533 -0.077219 0.011898 0.098162 -0.19723 -0.12157 -0.099537 0.044527 -0.071523 -0.40579 0.037934 -0.012786 0.51199 0.20932 -0.12951 -0.14676 0.0073386 0.052261 -0.099823 -0.22976 0.10393 -0.058683 -0.085894 -0.20411 0.006355 0.066104 0.24088 0.38803 -0.3907 -0.19157 -0.052825 0.16331 -0.15537 -0.0039882 0.19619 0.040159 -0.066945 -0.21405 -0.20734 -0.2352 0.44023 -0.13276 0.10037 0.033127 -0.11309 0.051923 0.039664 0.13675 -0.1066 0.097186 0.014949 -0.15454 -0.3423 0.053618 0.030314 0.13847 0.071484 -0.13708 0.069166 -0.10534 
black -0.10832 0.10485 0.33251 0.14982 -0.65388 0.43951 -0.26774 -0.41916 -0.51268 0.10057 0.0066403 0.34942 -0.125 -0.086817 0.1268 -0.11886 -0.17253 -0.27293 -0.066282 0.011262 0.10545 0.23638 0.028395 0.26467 -0.073536 -0.15877 0.02 0.093625 -0.13907 0.091357 -0.3435 0.14163 -0.010605 -0.085622 -0.050646 0.037392 -0.042653 -0.098354 0.28424 0.26914 -0.39589 0.27065 0.16361 -0.11333 -0.12976 -0.27623 0.18736 0.2849 -0.07372 0.16316 0.29105 0.0054817 0.049238 0.37097 -0.32236 0.15475 0.16827 0.40556 0.14993 -0.27911 0.23612 0.16976 -0.14262 -0.30465 0.01935 0.036918 0.041639 0.26039 0.093236 0.28612 -0.02971 0.067997 -0.12912 -0.10252 -0.2106 -0.034325 -0.062544 -0.17624 -0.43313 0.28839 -0.21848 -0.32217 0.22061 0.30831 -0.23316 -0.20587 0.047807 -0.2632 0.42345 0.22866 -0.19957 -0.011471 -0.073016 0.25092 0.12774 -0.26917 0.1842 0.42871 -0.083364 0.02258 
straight 0.095951 0.037407 0.18861 0.44993 -0.40466 0.33385 -0.22038 0.020338 0.0075241 0.029098 0.055398 0.082453 0.064967 0.30424 -0.20188 -0.11366 0.031856 0.13232 -0.26636 -0.65476 0.41092 0.12619 -0.22264 -0.031614 -0.070575 -0.20954 -0.16655 0.13581 -0.17577 -0.08013 0.11583 -0.099368 0.40946 -0.03253 0.11088 0.05502 0.095975 0.072632 0.090577 0.43416 0.027359 0.0046276 -0.036155 -0.034334 -0.25235 0.29864 0.43266 0.071764 0.24882 0.2038 -0.015403 0.031278 0.20902 0.29262 0.14838 -0.15981 0.041718 -0.19751 0.15139 -0.24205 -0.078348 -0.064451 -0.49661 0.04903 0.20962 -0.30391 -0.22801 -0.084341 0.1286 -0.47217 0.24818 0.080009 0.23219 0.06491 -0.13774 -0.24397 0.02559 -0.20133 -0.063449 -0.30559 -0.13397 -0.15677 -0.31048 0.13606 -0.15603 0.10188 0.28189 -0.12498 -0.24892 0.50593 0.36592 -0.32645 -0.15506 -0.029631 -0.060462 0.069474 -0.059089 0.0040379 -0.28843 0.02335 
eyebrows 0.049512 -0.098572 0.35362 -0.18244 -0.27836 0.26623 -0.58821 -0.12776 -0.19112 0.20434 0.17683 0.29323 -0.23499 -0.051197 0.067641 -0.032069 -0.15117 0.1489 -0.40113 -0.089179 -0.30863 0.028934 0.17381 0.033962 -0.018766 -0.13101 0.39661 0.16423 0.064613 -0.15496 0.060418 0.00073592 -0.19189 -0.25024 -0.2907 0.073029 0.22004 -0.32654 0.23942 0.21397 -0.10559 -0.54054 -0.32482 0.24907 -0.14321 0.12795 -0.030373 0.041184 0.15584 0.051139 0.11171 0.13682 0.20011 0.23979 0.25391 -0.27194 0.24511 0.046923 -0.08811 0.17044 -0.17904 -0.0082896 0.15085 0.056645 -0.0012339 -0.1983 -0.23325 -0.02599 -0.11232 -0.038345 -0.37009 -0.2252 0.29408 -0.10501 0.022881 -0.2073 0.043692 0.016928 0.051891 -0.22032 0.32787 0.40018 -0.091298 0.0075593 0.10343 -0.18127 0.23764 0.096254 0.23155 -0.086065 -0.029304 0.11544 -0.068664 0.26961 -0.0685 0.2927 -0.014318 -0.20037 -0.037342 -0.11401 
brown -0.040427 -0.0012387 0.24494 0.12254 -0.63646 0.54486 -0.35686 -0.28542 -0.53621 0.23196 -0.058846 0.2229 -0.057785 -0.082088 0.0049164 -0.10458 -0.053266 -0.38665 -0.024008 -0.050602 -0.079772 0.49619 0.11285 0.34491 -0.085464 0.054742 0.073969 0.1909 0.030374 0.058516 -0.28094 -0.13653 0.022664 0.053486 0.1108 0.069714 -0.12645 -0.061279 0.50849 0.33908 -0.36268 0.12183 0.098578 -0.10741 0.078971 -0.12219 0.074911 0.2845 0.17781 0.22299 0.29619 -0.070934 0.15804 0.35293 -0.22045 0.054259 0.15331 0.43178 0.066043 -0.22836 0.16702 -0.053966 0.012364 -0.26143 -0.065836 0.08016 -0.00034168 0.07973 0.089268 0.38256 -0.0014145 0.1043 -0.10452 -0.16395 -0.30247 -0.12556 -0.13105 -0.41818 -0.30098 0.32337 -0.11974 -0.29912 0.39079 0.12158 -0.31347 -0.14627 0.041184 -0.46576 0.25476 0.24295 -0.11922 -0.018981 -0.14292 0.16864 0.25354 0.046911 0.26838 0.20261 -0.20871 -0.01909 
eyebrows. 0.14958 0.15115 0.48062 0.08528 -0.51694 -0.047913 -0.35026 -0.6384 0.1333 -0.031568 0.12603 0.00081061 -0.70538 0.19834 0.0045425 -0.013724 -0.26529 0.11756 -0.20094 -0.11284 0.15824 -0.29619 0.064894 0.26918 0.23677 -0.11667 0.069343 0.22853 0.2213 -0.28008 0.032759 0.12732 -0.17293 -0.31084 -0.11388 0.18901 0.21046 0.038667 0.00058252 0.12004 -0.040517 -0.6839 -0.32491 -0.18196 -0.335 0.36478 0.080542 0.25286 0.29679 0.11825 0.17951 -0.22322 0.26304 0.18827 0.047546 -0.074302 0.046386 0.047846 -0.32912 -0.1608 0.57784 -0.17136 0.048684 0.17336 -0.19777 0.23712 0.060216 0.29664 -0.17623 -0.36562 0.087944 0.10535 -0.036592 0.03891 0.31123 0.076304 0.39326 -0.087464 -0.27874 -0.27067 0.099461 0.30443 -0.040926 0.16081 -0.24235 -0.31701 0.51183 0.11101 0.84514 -0.42261 -0.09507 0.10965 -0.10672 0.36663 0.083051 0.23016 0.036297 -0.60052 -0.19972 -0.058966 
face 0.15965 0.19473 0.2469 -0.15712 0.030119 0.39407 -0.26323 -0.21304 -0.50849 -0.19588 -0.0059918 0.32391 0.062796 -0.01015 -0.26982 -0.37407 0.029307 0.084651 -0.049635 -0.14038 -0.318 0.07726 -0.0035 0.22949 0.35379 0.18793 0.034682 -0.36134 -0.24561 -0.0054784 -0.4005 -0.31002 -0.024095 -0.3175 -0.073306 0.0072419 -0.073795 -0.023548 0.17742 -0.090693 0.12382 0.45893 0.013845 -0.014675 -0.035737 0.17401 0.2301 0.072438 0.25075 0.022853 -0.023049 0.13805 0.36649 0.27891 -0.21863 -0.17681 0.10361 -0.046412 -0.17111 0.2934 -0.26777 -0.098138 0.16345 -0.0033684 0.21953 -0.090317 -0.24804 -0.12034 -0.076962 -0.17271 0.0265 0.063973 0.27545 -0.28527 0.0075868 0.2998 0.032186 -0.040463 0.31941 -0.48442 0.064193 0.068746 0.054837 0.037937 -0.058905 -0.22364 0.11156 -0.11813 -0.25653 0.16119 -0.41473 0.048972 0.16395 0.032966 -0.37003 0.031045 -0.21206 -0.42497 0.10542 -0.37041 
sports -0.022026 0.34712 0.082905 -0.032115 0.14785 0.34379 -0.56753 0.1696 -0.52121 -0.20869 0.034966 0.054194 -0.1818 0.30888 0.2752 0.15881 -0.1814 0.20369 -0.47368 -0.6054 0.15301 0.088569 -0.31737 0.11812 0.33715 -0.23688 -0.31303 0.028516 0.19867 -0.66164 -0.08715 0.37959 -0.23259 0.077905 -0.14654 -0.25784 0.18657 0.21784 -0.3369 0.29652 -0.043974 0.22979 0.27884 0.18728 0.074219 -0.33175 0.13986 0.26247 0.081239 -0.078875 -0.048192 0.89797 0.35227 0.24575 -0.43825 0.42166 0.13611 -0.19981 -0.37516 -0.039813 -0.028341 -0.062162 -0.17134 -0.058101 -0.15933 0.0866 0.4162 0.54261 0.50587 -0.18463 0.16314 -0.28962 -0.10081 0.029562 0.15175 0.21818 0.31263 0.021794 -0.010019 0.12542 0.16774 -0.10372 -0.20069 0.35421 0.34421 -0.21563 0.060618 -0.34455 0.24286 0.29507 0.47261 -0.0055058 0.35419 -0.21811 0.19389 0.055779 -0.041693 0.1374 0.14332 0.28359 
bangs. -0.73609 0.0045639 0.24027 0.0016515 -0.34985 0.18889 -0.31359 0.51771 -0.0047245 0.11718 0.27563 0.2263 0.4428 0.020448 0.057626 0.26704 0.19861 -0.54227 -0.23601 0.073681 -0.11711 0.24 -0.14289 0.23141 -0.15115 -0.17254 0.014409 0.22794 -0.28482 -0.046043 -0.39317 0.10359 -0.064961 -0.27475 0.083874 0.0291 -0.21399 -0.030291 0.19387 0.34024 -0.27402 -0.10054 -0.0015287 -0.13241 0.38629 0.18003 0.026967 0.23418 0.29598 0.23571 0.053411 -0.015253 -0.12937 0.44443 -0.066787 -0.41092 -0.47076 0.54378 0.034835 -0.16952 0.056043 -0.051056 -0.076077 0.12761 0.43877 0.19923 0.22535 -0.23777 -0.14019 0.088478 -0.11212 0.2187 0.16768 -0.09419 0.073555 0.12261 0.28869 -0.23717 -0.18662 0.11896 -0.012754 -0.19055 -0.0041365 0.27811 0.34122 0.12337 0.40365 0.15276 0.077331 0.14125 -0.12997 0.043413 -0.066029 -0.25598 0.33845 0.10868 -0.287 -0.23586 -0.012791 0.0025458 
He's -0.24205 -0.017438 0.13264 -0.031519 0.39631 0.28706 0.15687 0.31272 -0.46892 0.026608 -0.29964 0.49989 -0.070369 -0.19457 -0.078714 0.2581 -0.44947 0.25488 -0.29831 -0.19078 0.048587 -0.18992 -0.39288 0.24169 -0.11204 0.016036 -0.18144 -0.3911 0.021815 -0.65166 0.18443 -0.27006 -0.57907 -0.12874 -0.29926 -0.13843 -0.08684 -0.01328 -0.32165 0.45906 -0.26752 0.043192 0.076253 0.0551 0.33787 -0.25127 0.21299 -0.24447 0.17163 0.24747 -0.087947 0.5573 0.18643 -0.046491 0.26426 0.58598 0.071134 -0.2461 -0.19706 -0.5168 -0.30586 0.07742 -0.38763 -0.1033 -0.0094659 0.20898 0.20285 0.10828 0.46565 -0.031481 -0.23235 0.031942 -0.037136 0.20001 0.64884 0.15603 0.15966 -0.14791 -0.73336 -0.17553 0.050952 -0.15266 -0.45474 0.26715 -0.24517 -0.14218 -0.0082476 -0.057924 0.1033 0.43989 0.17814 -0.24383 0.52406 -0.17231 -0.014106 0.016019 0.32219 0.22767 0.051338 0.35307 
bushy 0.047333 0.17447 0.10024 -0.044722 -0.19079 -0.13653 -0.34357 -0.34436 0.1374 -0.35739 0.09031 0.32768 0.088479 0.17343 0.10301 0.0062689 -0.43336 -0.15068 -0.068822 -0.5213 -0.31662 0.35075 -0.603 0.36059 0.064219 0.089739 -0.051473 -0.095227 -0.0756 -0.19699 0.01708 0.2725 -0.094302 0.1234 -0.012351 0.12608 0.17786 -0.1677 0.37498 -0.24116 -0.33308 0.11731 -0.069288 -0.13156 -0.017654 -0.17404 -0.060887 0.033178 -0.1237 0.21418 0.077828 -0.070083 0.16599 0.097388 -0.12911 0.19518 0.0035363 -0.16247 -0.42465 -0.27592 -0.010294 0.20174 0.19522 -0.27385 0.073887 -0.12141 0.046986 0.35502 0.074623 -0.21737 -0.096923 0.24077 -0.13095 -0.20049 0.24764 0.066427 0.37222 -0.15836 -0.1237 -0.053845 0.23962 -0.050567 -0.29689 0.034665 -0.29529 0.30082 0.097858 -0.18245 -0.036592 -0.14972 0.13814 -0.145 -0.3328 -0.049415 0.12293 0.016109 -0.14064 0.091923 0.30332 -0.071781 
young. -0.15744 0.75334 -0.24874 0.20533 -0.20465 0.47134 -0.43102 0.42061 -0.473 -0.28036 -0.078099 -0.63447 -0.64846 0.015553 0.085459 -0.2605 -0.017209 0.15582 0.077615 -0.40053 0.21204 -0.34128 0.089066 0.33547 -0.099934 -0.53373 -0.50482 -0.26998 0.14668 -0.10858 -0.041101 -0.065416 0.23127 -0.31886 -0.73334 -0.33721 -0.11025 -0.27372 -0.027173 -0.31811 0.17504 -0.11787 -0.065147 -0.70143 0.14 -0.21071 -0.23177 -0.57905 0.17857 0.10405 -0.054211 0.7006 0.14455 0.14972 0.11198 0.21891 -0.074198 -0.11013 -0.12415 -0.3689 0.013797 0.03784 -0.24616 -0.043912 0.40517 0.33943 0.216 -0.13977 0.74803 0.042882 -0.21439 0.20255 -0.022579 0.1436 0.0074135 0.27788 0.12236 0.13464 -0.25314 0.23905 -0.022925 -0.45086 -0.17756 0.20769 -0.05316 0.20517 -0.1194 0.024946 0.15692 0.16815 0.0037197 0.3672 -0.67283 0.11167 0.19777 0.2585 -0.21921 0.18493 0.11695 0.12255 
blond -0.26307 0.14229 0.15204 -0.19115 -0.52137 0.23598 -0.35473 -0.22384 -0.53521 0.31177 -0.21311 0.39997 -0.016288 0.16225 0.017576 -0.048677 0.024895 -0.51163 0.13098 -0.082226 -0.029678 0.5824 0.36192 0.36844 -0.18287 -0.10345 0.072929 0.30141 -0.18537 0.32307 -0.1589 -0.29094 -0.022556 0.0065682 0.10391 0.23628 -0.1021 -0.069318 0.26662 0.29322 -0.51113 0.081311 -0.047272 -0.21301 0.087357 -0.11365 0.01366 0.44829 -0.086807 0.096664 0.17465 -0.071391 0.038261 0.214 -0.25986 0.10016 0.26306 0.67685 0.20056 -0.19945 -0.034585 0.29412 0.0021349 -0.41359 0.066233 0.19465 -0.37763 -0.21929 -0.22128 0.34041 0.034529 0.34527 0.14264 -0.16925 -0.15349 -0.013666 -0.061211 -0.42217 -0.15507 0.21372 -0.11328 -0.20898 0.20668 0.041222 0.023095 -0.026409 0.025704 -0.43207 0.083781 0.26936 0.074464 -0.10498 -0.18173 0.008403 0.51483 0.039153 0.22585 -0.13355 0.021804 -0.19203 
nose. 0.046147 0.2331 0.24455 0.22317 -0.18277 -0.10764 0.028293 -0.14456 -0.20464 -0.35202 -0.5258 0.12061 -0.36233 0.41103 -0.16425 -0.041655 0.11049 0.11277 -0.065761 0.085596 0.40283 -0.2677 0.29692 -0.1323 0.57168 0.9927 -0.39943 -0.043336 0.013232 -0.49433 -0.42752 0.29394 0.043626 -0.13334 0.25734 0.57645 0.29236 0.19517 0.10267 0.66362 0.14155 -0.66955 0.032863 -0.51793 0.13436 0.17197 0.09736 0.24287 0.20199 0.46796 0.11961 0.45792 -0.15304 -0.0074828 -0.05348 0.51077 -0.17751 -0.29747 -0.68654 -0.15505 0.081986 -0.14414 0.094127 -0.10011 -0.014141 0.25489 -0.051665 0.36697 0.030089 0.059432 0.36045 0.21351 0.12725 0.11553 -0.001127 0.28746 0.36195 -0.2518 -0.29826 -0.37295 0.0017153 0.3284 0.27555 0.24664 -0.18074 -0.0084318 0.30835 -0.13976 0.11379 -0.14658 -0.22409 0.20396 -0.21039 -0.099831 -0.034304 0.070321 -0.017258 -0.70468 -0.63462 0.29384 
face. -0.15614 0.2731 0.48604 0.51818 -0.091167 0.78316 -0.28892 0.1151 -0.25544 -0.37405 -0.056465 0.3233 -0.2011 0.23419 0.04661 -0.41149 0.13703 0.024768 -0.14728 -0.24926 0.43741 -0.25747 -0.24413 0.34302 0.099711 0.18403 -0.19568 -0.32598 -0.042334 -0.16109 0.15035 0.089789 0.021651 -0.068006 0.19926 -0.43132 0.090162 -0.39832 0.012262 -0.33749 0.077115 0.40716 0.21733 0.1128 0.073197 0.23319 0.19252 0.095144 0.06615 -0.067697 0.092015 -0.083169 0.13814 -0.18899 -0.3201 0.18454 -0.32835 -0.25461 -0.46402 0.096564 0.19485 -0.073786 0.099544 0.15665 0.19827 0.21061 -0.27956 -0.08002 -0.0025727 0.10013 0.017402 0.0061571 -0.19987 0.2253 0.066073 0.054414 0.15441 -0.16235 0.04893 -0.66903 -0.28061 -0.0021761 0.22711 0.55092 -0.42822 -0.33069 -0.063166 -0.18024 0.15778 0.015924 -0.048546 0.1784 0.047529 -0.14865 -0.57557 0.34951 -0.35296 -0.19052 -0.058424 -0.084636 
hair. 0.39128 -0.41888 -0.069805 0.1663 0.72022 0.24938 -0.29848 -0.36091 0.27262 0.06167 0.22284 0.067124 -0.37472 -0.26458 -0.43269 -0.081699 -0.11568 -0.22115 -0.60622 -0.21967 -0.09586 0.052799 -0.03062 -0.22402 -0.36298 -0.076467 -0.20491 0.06448 -0.31429 0.15989 -0.16251 0.54472 0.082164 -0.46885 -0.30055 0.17905 -0.19737 -0.15493 0.20846 0.71783 -0.6844 0.36409 0.3357 0.10913 0.33107 -0.43128 0.23693 0.25144 -0.19052 -0.26571 0.19786 -0.40842 0.39349 0.38865 -0.20063 0.25222 0.17589 0.7494 -0.36765 -0.22465 -0.1862 0.1284 0.2143 0.13457 0.62139 -0.010679 0.27556 -0.35214 0.070838 0.14083 0.17554 0.30588 -0.29721 0.014553 -0.4861 -0.067478 0.69681 -0.35195 -0.0032016 -0.06481 -0.021625 -0.2586 0.47301 -0.036611 -0.57106 -0.037918 -0.075833 0.15472 0.35111 0.17107 0.31208 0.098759 0.19536 0.14485 0.18159 0.036972 0.1393 0.12591 0.04322 -0.27395 
earrings 0.07886 0.12357 -0.0074706 0.077973 -0.046285 0.19409 -0.22757 -0.48917 -0.16125 0.31903 0.34207 -0.38933 0.26983 0.26224 0.024166 -0.044558 0.07731 -0.41624 -0.25719 0.15751 0.072735 0.38521 0.2431 0.028869 0.61712 -0.13728 0.50415 0.039266 -0.11435 0.18734 0.5238 -0.16382 0.41986 0.0097114 0.15 0.069956 -0.010896 -0.2028 0.050584 0.16495 -0.63111 0.27863 -0.15726 0.30035 0.20115 -0.13551 -0.19456 -0.042569 0.091734 0.30254 0.037285 0.14779 0.37261 0.29905 -0.43985 0.082857 -0.055219 -0.059383 0.12248 0.19222 0.16137 0.39143 -0.00038305 -0.13406 0.027521 0.044374 -0.42816 -0.32923 -0.51794 -0.15261 -0.39795 0.28306 0.13931 -0.08077 0.44094 0.24041 0.014098 -0.44122 0.15326 -0.083768 -0.044609 0.35631 -0.05597 -0.18375 0.37698 -0.03927 -0.091328 -0.10417 -0.22283 -0.13063 0.03613 0.017984 0.1973 -0.2217 -0.056313 -0.17814 -0.081275 -0.53213 -0.2578 -0.088357 
5 -0.52573 0.70773 0.036789 0.33473 0.36177 0.29567 -0.535 -0.20915 -0.56322 -0.08022 -0.092164 -0.060315 0.1575 0.24999 0.22231 0.019979 -0.48519 0.34638 -0.20061 -0.4198 -0.17752 0.10878 -0.53688 0.094895 -0.15729 0.1885 -0.31273 -0.21925 0.14435 -0.44316 -0.17786 0.11676 -0.55499 0.29402 -0.50296 -0.54305 0.43456 0.45291 0.26045 0.18281 -0.22002 0.18488 0.21082 -0.085518 -0.075603 0.26382 0.40054 0.057 -0.16622 -0.12613 -0.054249 0.43804 0.58086 0.2769 0.14495 0.17383 -0.13898 0.2489 0.032279 -0.21117 -0.019643 0.040419 -0.032088 -0.31764 -0.012126 -0.022205 0.14803 -0.050605 0.72756 -0.34542 -0.053387 0.072948 -0.25267 -0.048943 0.11582 -0.25973 0.2606 -0.084909 -0.1607 -0.14227 -0.013869 0.16894 -0.53653 -0.02675 -0.098296 -0.294 0.16463 -0.39021 0.19424 -0.098876 0.19008 -0.077727 0.32499 -0.30418 0.025675 0.10672 0.23539 -0.010518 -0.25789 0.59939 
o'clock -0.38633 0.41935 -0.31959 -0.087003 -0.034952 0.75417 -0.33753 -0.086094 0.038816 -0.13854 -0.067649 0.0078139 -0.19258 0.060551 -0.08776 -0.19573 -0.25582 -0.073485 -0.030084 -0.54528 -0.029129 -0.2153 -0.34216 -0.241 0.098045 -0.19978 -0.31411 -0.1674 0.0078217 -0.35694 -0.33784 0.17188 -0.36715 0.20591 -0.13036 -0.30669 0.34233 0.1723 0.24891 0.12561 -0.44859 0.70952 -0.1386 0.43088 -0.08433 0.15516 0.17941 0.27477 0.012956 -0.018413 0.45935 0.766 0.35282 0.33958 -0.027648 0.12862 0.14517 -0.32512 0.15548 -0.53933 0.046067 0.016788 0.18987 0.012997 0.081782 0.064519 0.06305 0.60748 0.73404 0.070877 -0.14955 -0.28647 -0.080201 0.050843 0.5833 0.17624 0.40822 -0.0094263 -0.20592 -0.26141 0.39436 -0.22452 -0.35033 0.48692 -0.059993 -0.070504 0.08661 0.021338 0.13579 0.21516 0.30356 -0.15842 0.093186 -0.46658 -0.020233 0.10462 0.61237 -0.16585 0.033107 0.38987 
narrow 0.18897 -0.27417 0.24513 -0.14747 0.19646 -0.16721 -0.22707 0.23181 -0.1492 -0.068888 0.36372 -0.056637 0.37633 0.29078 -0.058316 -0.086644 0.35621 -0.26484 -0.0652 -0.10318 -0.017575 -0.10902 -0.31697 0.025417 -0.023733 0.26847 -0.00053853 -0.090412 -0.2758 -0.10768 -0.03807 -0.19832 -0.044627 -0.33293 -0.37275 -0.082022 0.18466 -0.10768 0.54965 0.038053 -0.065036 -0.68956 -0.079404 0.41277 -0.3354 -0.027239 0.12319 0.14817 0.25543 -0.035544 0.18199 0.58322 0.35477 -0.16221 0.0082297 0.2745 0.056709 -0.19659 0.018647 -0.11197 0.25092 -0.0076656 0.23151 -0.36578 0.22726 -0.17629 0.10722 0.14864 -0.020895 -0.062422 -0.17239 0.54811 0.055443 -0.20311 0.0877 0.083564 0.048797 -0.081577 0.066886 0.095102 -0.34866 0.52402 -0.11866 0.39651 -0.043035 0.015366 0.12292 0.052875 -0.058263 0.47515 -0.026368 0.25444 -0.088788 0.16388 0.14453 0.28367 0.36229 0.31895 -0.098967 -0.052311 
colour -0.0092 0.36206 0.25565 -0.1337 0.065746 0.073205 -0.83389 0.44222 -0.31482 0.48281 0.01221 0.16481 0.27247 0.40397 0.0060944 0.028336 -0.099013 -0.25974 0.36378 -0.050643 -0.0039229 0.1155 -0.01039 0.047516 0.0047056 -0.24842 -0.068898 0.097831 -0.37558 0.098082 -0.037627 0.053622 0.088596 -0.026907 -0.053132 0.4255 0.12909 -0.24782 0.10834 0.50352 0.040402 0.31527 0.25906 -0.20413 -0.32835 0.23941 -0.34818 0.10922 0.19062 0.42269 0.11602 -0.50559 0.010535 0.55964 -0.096973 -0.32759 0.012445 0.06805 -0.13966 -0.23429 0.042942 0.021554 0.12745 -0.014972 -0.15196 0.19026 0.11237 -0.2066 -0.29778 0.20919 -0.49639 0.2407 -0.11634 -0.032365 -0.22684 0.13453 0.52685 0.15626 -0.31272 0.2811 0.16611 0.10893 -0.011823 0.082842 -0.24349 0.0094935 -0.14599 0.2687 -0.019864 0.62401 -0.062512 0.10038 0.12092 -0.15731 0.3944 0.093624 -0.034259 -0.07088 -0.73145 -0.2738 
necklace -0.11813 0.39175 -0.21242 0.46595 0.11371 0.11495 -0.14616 -0.28865 -0.22551 0.16124 0.3083 -0.044364 -0.066831 0.16183 0.12786 0.013832 0.3519 -0.49735 -0.34135 0.25729 0.29381 0.3174 -0.089242 -0.047956 0.12157 -0.18483 0.42126 0.13081 -0.18111 0.11506 0.36346 -0.19602 0.057571 0.20512 -0.097074 0.41735 0.067563 -0.15738 -0.16294 0.45594 -0.18322 0.27896 -0.20118 0.29363 0.098878 -0.054757 -0.060136 0.39357 -0.13795 0.012151 0.058564 0.149 0.16739 0.14563 -0.067466 -0.021611 -0.24757 -0.15081 0.05619 0.23034 -0.021912 0.40158 0.067461 -0.12895 -0.10111 0.025238 -0.22554 -0.432 -0.47088 0.089729 -0.22084 0.80925 -0.05607 -0.065631 0.16307 0.40648 -0.24418 -0.29379 0.33195 -0.21944 0.19742 0.081297 -0.16212 -0.30046 0.47312 -0.058754 -0.028134 0.03358 0.10355 0.10826 0.19566 -0.065689 -0.20428 0.072189 -0.010741 0.11175 -0.19995 -0.48084 0.042188 -0.43589 
attractive. -0.21173 0.67084 -0.021003 0.33211 -0.34892 0.4881 -0.46086 -0.15359 -0.3429 -0.47017 0.011843 -0.62932 -0.77611 0.34701 -0.54149 -0.28855 -0.15293 0.52739 0.14807 -0.4247 0.33794 -0.16997 -0.31793 0.26631 0.027193 -0.42004 -0.26737 -0.23086 -0.14526 -0.095474 -0.094184 -0.15785 0.17651 -0.46516 -0.52228 -0.44019 -0.40695 -0.30979 0.46798 -0.40073 -0.11181 0.017075 -0.05025 -0.35404 0.044833 -0.27087 0.21453 -0.20798 0.57824 0.20692 0.23979 0.39705 -0.051274 0.34701 0.14493 0.097029 -0.058443 -0.10577 -0.26702 -0.0065669 0.35636 -0.047004 -0.10336 -0.086494 -0.33247 0.30412 0.22726 -0.253 0.37265 0.098612 0.34045 0.27621 -0.15361 -0.1307 0.079724 0.27541 0.20987 0.35548 -0.40025 0.17844 0.22432 -0.28077 0.076253 -0.16567 0.22964 0.28344 0.1526 0.21295 0.11744 0.0088551 -0.086099 0.29678 -0.37903 -0.28581 0.38863 0.081647 0.038277 0.19208 -0.0080448 0.21069 
Her 0.24318 0.32169 0.16214 -0.17784 -0.038418 0.17424 -0.39246 -0.15494 0.099185 0.38833 -0.02901 0.1617 0.56204 0.22832 -0.057824 0.12391 0.30475 0.029427 -0.30297 -0.16909 0.067019 -0.14432 -0.097859 0.19108 -0.14108 -0.19948 0.21679 0.25444 -0.45219 0.02804 0.094009 -0.3676 0.42014 0.13657 0.44834 0.56972 0.14186 0.23796 -0.4916 0.13926 -0.088031 0.075664 -0.021608 -0.081917 0.031164 0.17794 0.26009 0.18569 0.54996 0.076822 -0.30064 0.24384 0.13521 0.45542 -0.1787 -0.17025 0.2434 0.011731 0.1344 -0.12766 -0.023603 0.14728 -0.33449 0.092758 0.28165 0.12512 -0.98131 -0.53611 0.011335 -0.29894 -0.21426 0.33116 0.61425 0.062719 -0.25715 0.17587 -0.13478 -0.5834 -0.32766 -0.20342 0.095764 0.21606 0.071578 -0.10229 0.56183 0.48297 -0.049318 0.13097 0.1536 0.26713 -0.28714 -0.503 -0.1747 0.23851 0.24801 -0.27076 -0.16403 -0.19121 0.083956 0.12153 
eyes -0.061974 -0.005289 0.27259 0.18186 0.15969 0.00024075 -0.24562 -0.23739 -0.36571 0.25717 0.23492 0.3857 0.14859 0.082875 0.24541 0.14395 -0.00010896 0.17683 -0.018277 -0.021687 -0.1535 0.031587 0.038485 0.04435 0.19177 -0.020281 -0.067786 -0.027043 -0.10707 0.13513 0.25612 -0.11383 0.23172 0.023092 -0.26218 0.21262 0.42631 -0.2949 0.57201 -0.10259 -0.31203 -0.2765 0.0014406 0.070008 -0.06239 -0.31492 -0.082682 0.41965 -0.2156 0.28287 0.068315 0.26534 0.4085 0.051305 0.31237 0.012901 0.11704 -0.058209 -0.20756 -0.016252 -0.30746 -0.076204 -0.033481 0.3358 0.19699 -0.052505 0.23924 0.15832 0.086086 0.26922 -0.083623 -0.03344 -0.017715 0.014177 -0.11773 0.083087 -0.099856 -0.074436 -0.017219 -0.38454 0.21284 0.49249 -0.10593 0.32325 0.027595 0.40936 0.22127 0.29284 0.2381 0.28341 -0.25089 0.024482 -0.30106 -0.49604 -0.42748 -0.090965 0.086646 0.29709 0.27537 -0.4084 
shadow. -0.19695 0.4391 0.14368 -0.036967 0.114 1.0872 -0.27641 -0.06066 0.046014 -0.064294 -0.011271 -0.23312 0.18064 0.10277 -0.014416 0.14055 -0.11204 0.30508 -0.36508 -0.49591 -0.24587 0.19927 -0.013478 -0.22036 0.0048434 -0.25121 -0.2195 -0.58538 -0.29885 -0.39225 -0.037272 -0.2457 -0.66944 0.47851 0.0068933 -0.31804 0.2017 0.0044679 -0.21157 0.62311 0.18979 0.019195 0.028211 -0.10302 0.051512 -0.29832 0.48211 0.086966 -0.57568 0.72915 -0.22526 0.13332 0.12636 -0.15276 -0.16516 0.13304 0.32589 0.27613 0.13092 -0.33077 0.35766 -0.36258 -0.51534 -0.24846 -0.29209 -0.030467 0.15338 0.38958 0.32928 -0.0058521 -0.060366 0.10355 -0.072068 -0.20013 0.43067 0.23328 0.81535 -0.15857 0.33615 -0.18782 -0.068793 0.32668 -0.72343 0.095689 -0.16665 -0.086704 -0.040226 -0.35359 -0.061277 0.37476 -0.040857 -0.049441 -0.31957 -0.60551 0.26746 0.14466 0.48879 0.018992 0.34908 0.22132 
His 0.07031 0.3471 -0.059788 0.28014 0.022424 0.62986 -0.46225 -0.082886 0.14671 0.26076 0.08093 0.12142 0.52831 0.2339 0.080955 0.008282 -0.030401 0.18009 -0.56467 -0.5167 -0.17243 -0.050394 -0.67255 0.3065 -0.1742 -0.18598 -0.41281 -0.16612 -0.27726 -0.52234 -0.17754 0.23068 0.05053 0.33594 -0.12682 0.14303 0.217 0.23059 -0.20378 0.45151 0.030168 0.32173 0.024433 -0.0024502 -0.27814 0.081673 0.58839 0.28273 0.3622 -0.11415 -0.17017 0.73957 0.40189 0.40693 -0.21716 0.15801 0.24035 -0.46409 -0.087332 -0.47622 0.10929 0.1466 -0.61101 0.064045 -0.083967 -0.033101 -0.35163 -0.010573 0.82668 -0.13892 -0.096558 -0.19793 0.37576 -0.10035 -0.12054 -0.023137 0.052919 -0.32737 -0.42743 -0.3358 0.26647 -0.14442 -0.5757 0.28263 0.27676 0.082027 -0.03965 -0.12355 0.15841 0.16074 0.0075301 -0.36429 0.22125 -0.15066 -0.0060769 -0.50951 0.382 0.27414 -0.1973 0.78341 
receding 0.95786 -0.26726 -0.29667 0.49503 0.4079 0.082587 -0.16323 -0.63001 0.19935 -0.21984 0.56155 0.35132 0.061356 -0.059814 -0.52088 0.20272 -0.69719 0.12048 -0.42647 -0.25507 0.10518 -0.18721 0.39766 -0.17736 -0.18292 -0.069519 0.70299 -0.33172 -0.48582 -0.6038 0.24936 0.37928 -0.28625 -0.16605 -0.69169 0.074553 0.071126 0.14356 -0.15063 0.77641 -0.67575 0.081818 -0.040396 -0.13159 0.4466 -0.096267 -0.11397 0.17485 0.19929 -0.80645 -0.097331 0.17125 0.26306 0.14526 -0.34472 -0.0097508 -0.089089 0.31148 -0.13371 -0.42004 0.2288 -0.10784 0.075298 0.076309 0.81591 0.061919 -0.050037 -0.066533 0.33927 0.018421 0.028719 -0.18817 -0.35572 0.14284 -0.74167 0.044091 0.21086 -0.38524 -0.11272 -0.012835 -0.17993 -0.23707 0.44228 0.59159 -0.35268 0.23067 -0.18023 -0.049896 -0.12866 0.47804 0.065263 -0.16453 0.036949 -0.22079 -0.10445 0.13758 -0.29339 0.29958 -0.13645 -0.33396 
hairline. 0.48974 0.30158 -0.050218 -0.14166 0.34309 -0.096274 0.11616 -0.18793 0.27088 -0.69051 0.6982 0.2758 -0.25556 -0.081874 -0.25279 -0.11873 -0.51087 0.21889 -0.5655 0.36853 0.1044 -0.21202 0.043275 -0.22044 -0.19643 -0.07182 0.1669 0.093098 -0.42654 -0.40665 0.28251 0.39381 0.17484 -0.19634 -0.11934 0.038616 0.043329 0.34776 0.21708 0.70632 -0.31975 0.019227 0.40115 0.18806 0.38396 -0.30815 0.1028 0.26671 0.0056112 -0.425 -0.096869 0.17215 0.32107 0.89001 -0.29613 0.23283 0.074706 0.56729 -0.36419 -0.20577 -0.22592 0.16392 -0.39333 0.39037 0.89837 0.33591 -0.14575 -0.17692 0.14532 0.0062349 -0.381 0.08481 -0.18162 0.021985 -0.34816 -0.12941 0.74736 -0.6341 0.13709 -0.34623 -0.041387 -0.24268 0.52339 -0.11146 -0.69001 -0.15741 0.086334 0.41148 -0.46642 0.30064 0.31601 -0.024605 -0.0059636 0.37873 -0.4453 0.16806 0.26481 0.7579 0.16975 0.06688 
rosy -0.060565 0.46977 -0.22915 -0.27046 -0.058701 0.31945 -0.18641 -0.26083 -0.21518 0.48995 0.086285 0.27361 0.074396 0.14929 -0.012852 0.29274 0.13468 -0.29812 0.19289 0.58034 0.30317 0.28455 0.25609 0.22944 0.29117 -0.33167 0.65277 -0.21958 -0.35302 0.032266 0.014709 -0.38093 0.39378 -0.17655 -0.12456 0.12287 -0.046161 -0.33091 0.16545 -0.00059044 -0.095903 0.16253 0.25585 0.061465 0.25177 -0.45342 0.18904 0.24835 0.38604 -0.32946 0.15423 0.017359 0.23641 0.30027 0.069949 0.042833 0.14812 -0.025268 -0.22761 -0.11091 -0.16283 -0.15295 0.0067574 -0.3256 0.084682 -0.30021 -0.21498 -0.3693 -0.26842 -0.46074 -0.028576 -0.15884 0.073911 -0.21073 -0.1836 -0.021245 0.055085 -0.22934 0.076457 -0.56598 -0.11693 0.46821 -0.26695 -0.041713 0.49306 -0.10458 -0.033414 0.27868 -0.26976 -0.34865 0.04179 0.13035 -0.019891 0.37596 0.29479 0.1785 -0.22724 -0.29588 0.093799 -0.24102 
cheeks 0.10983 0.077332 -0.19348 -0.098337 0.17436 0.32435 -0.57336 -0.55326 -0.25977 -0.16827 0.1588 0.047217 -0.19024 -0.088609 -0.052781 0.22194 0.28019 -0.27586 -0.013318 0.022146 -0.14692 0.37981 0.28196 0.16296 0.30107 -0.071918 0.43898 -0.034147 -0.27076 -0.025563 0.13414 -0.54765 0.18316 -0.062286 0.099009 -0.10124 -0.054172 -0.33449 0.026353 0.10801 0.019377 0.21496 -0.036065 0.23531 0.12234 -0.28135 -0.14286 0.35232 0.1333 0.042221 0.30235 0.080101 0.21923 0.070974 0.083383 -0.60148 0.51629 0.035119 0.34351 0.17472 -0.20338 -0.061352 0.12235 -0.16555 -0.21911 0.22386 -0.18855 -0.50124 -0.53769 -0.12771 -0.1603 0.11353 0.17537 -0.1536 0.074425 0.20234 0.46774 -0.67902 -0.39764 0.00051131 -0.11325 0.46895 0.41267 -0.30706 0.7696 0.083473 -0.23584 0.37318 -0.21112 0.18274 0.019201 0.10344 -0.32588 0.26946 -0.25051 0.19184 -0.5845 -0.085648 -0.095965 0.046094 
necktie. -0.17263 0.24141 -0.039527 0.53283 0.71221 0.51822 -0.39058 -0.26292 0.24513 -0.04976 0.20321 -0.10411 -0.21617 0.27827 0.41093 -0.032811 -0.1911 0.11282 0.21889 -0.17222 -0.42012 -0.0081082 -0.39528 0.46383 0.30137 -0.092484 -0.14409 -0.49321 -0.067738 -0.47464 0.11909 0.11246 0.10372 0.16299 -0.18108 -0.10867 -0.043803 0.37087 0.086282 0.68367 -0.21122 0.075276 -0.12001 0.15371 0.12218 -0.08885 -0.17177 -0.080996 -0.35302 -0.11672 -0.048423 0.53319 0.45417 0.32683 -0.44388 0.2072 -0.070109 -0.20554 0.013747 -0.026749 -0.25159 0.1117 -0.17202 0.089227 -0.21174 -0.22351 0.043995 0.41561 0.25834 0.24394 -0.27479 -0.29529 -0.2476 0.13688 1.0949 0.094617 0.22979 0.039135 0.025719 0.0068374 -0.35402 0.25944 -0.77655 0.36617 0.17347 -0.15085 0.10268 -0.77113 0.11208 0.176 0.051378 -0.055534 0.11785 -0.089589 0.22603 -0.14503 0.33164 -0.044056 0.053243 0.33573 
chubby 0.089788 0.41139 0.0099973 0.041289 0.12497 -0.16581 0.036923 0.089423 0.12211 -0.21168 0.38127 -0.010839 0.060926 0.018521 0.26551 0.03837 -0.52826 0.25773 -0.23767 -0.15546 -0.020064 -0.5622 0.24215 0.32072 0.13115 -0.23956 -0.017539 -0.030153 -0.17395 -0.39026 -0.13274 -0.415 -0.56747 0.022684 -0.34968 -0.13276 0.035268 0.36236 0.13078 0.57065 0.0011828 0.21912 0.28941 -0.12559 -0.037423 0.21147 0.055321 -0.22287 0.067429 -0.033495 0.39544 0.55611 0.26166 -0.084712 -0.40635 0.50957 0.33226 -0.050506 -0.38133 -0.42049 -0.34793 -0.34476 0.39329 0.27669 0.4461 0.052853 -0.014759 0.21461 0.16496 0.36439 0.031265 -0.1095 0.11439 -0.30947 0.16902 -0.1589 0.12819 -0.36626 -0.2359 -0.13183 0.051237 0.19157 -0.10541 0.23801 0.33987 -0.17183 0.19266 -0.40105 -0.19539 0.05574 -0.073582 -0.33134 -0.36042 -0.17829 -0.30838 0.42499 -0.10507 0.42964 -0.12059 0.14919 
sideburns. 0.21059 0.81236 0.12996 0.44835 -0.1631 0.44796 -0.80518 0.40657 0.24167 -0.25574 -0.21122 0.10315 -0.063564 0.0043939 0.11139 0.1086 0.26899 0.081524 -0.19331 -0.29359 -0.067841 -0.1784 -0.51803 -0.058594 0.49903 -0.20418 0.13155 -0.25129 -0.14775 -0.12958 0.54019 0.097749 -0.95464 0.051584 -0.072957 -0.20503 0.13682 0.10812 -0.092698 0.30714 0.20785 0.2712 0.036944 -0.055377 0.031227 -0.19348 0.32939 0.18944 -0.078572 0.45531 -0.14621 0.3963 0.52219 0.35827 0.21558 0.56526 0.099563 0.43249 0.017155 -0.13294 0.00010341 -0.016219 0.53175 0.088368 -0.13143 -0.046982 0.54511 0.49773 0.70598 -0.14586 0.025993 0.011201 -0.32679 0.081774 0.070424 0.34337 0.22055 -0.3559 -0.25772 -0.009286 -0.017148 -0.12758 -0.73771 0.23974 -0.10467 -0.39985 -0.18399 -0.21867 0.068303 0.1283 0.27119 -0.35071 0.1507 -0.48401 -0.19691 0.039458 0.5017 -0.070447 0.31219 0.75571 
nose, -0.37474 -0.38372 0.28076 -0.072939 -0.32781 -0.025298 -0.22621 0.19725 0.01064 -0.25549 0.24675 -0.082389 0.35536 -0.25889 0.053752 -0.15175 -0.042806 -0.050901 0.21647 0.0096261 0.28038 0.21667 0.19925 -0.3027 -0.24345 0.31882 -0.18554 -0.34723 -0.19489 -0.23213 0.13644 -0.13745 -0.049269 -0.0099081 -0.54366 -0.12074 -0.036695 -0.045883 0.449 0.57664 0.085394 -0.35268 0.025671 -0.042162 -0.094965 -0.072842 -0.34561 0.29909 0.051729 -0.22475 -0.081582 0.44779 0.67526 0.45589 -0.15455 0.25119 0.19972 -0.24904 -0.15188 -0.35045 -0.39741 -0.024362 0.37768 0.023263 -0.0078831 -0.093321 0.11325 0.0081409 -0.22895 -0.12866 0.15154 0.25494 -0.21523 -0.033495 -0.22311 0.17018 -0.11618 0.0079967 0.19499 -0.23556 0.13674 0.59155 -0.2288 0.11825 -0.17955 0.13178 -0.090869 0.032222 0.29137 0.36998 -0.35661 -0.10001 0.031171 0.017787 -0.065008 0.14882 -0.14625 0.037353 0.14858 0.24653 
earrings, 0.11021 0.096576 -0.11615 -0.18758 -0.33973 -0.35409 0.072853 0.26613 -0.29615 0.161 -0.086966 -0.32847 -0.099978 0.11498 -0.1568 -0.26734 -0.162 -0.32646 0.10786 0.11296 -0.10242 0.076113 0.10645 0.17191 0.16052 0.16775 0.19122 0.081295 -0.26008 0.30714 0.35255 -0.3241 0.062312 -0.1668 -0.15157 0.23492 -0.11144 -0.1835 0.13597 0.23183 -0.30963 0.12506 -0.19742 0.40522 0.12009 -0.27164 0.24225 0.086984 0.04787 0.14563 -0.11406 -0.02873 0.17002 -0.075768 -0.50786 0.1119 -0.034264 0.26716 0.14628 -0.22271 0.27071 0.45904 -0.16109 0.19167 0.20973 -0.11011 -0.15697 -0.20016 -0.47994 -0.25662 -0.38451 0.23894 0.25152 -0.25379 -0.02323 0.18081 0.04842 -0.20965 -0.43924 -0.71304 0.146 0.40601 0.022599 0.31567 0.22403 0.27661 -0.31318 0.10446 0.08705 0.0027359 0.3623 0.20975 0.13676 -0.39328 -0.038988 -0.10036 -0.33516 -0.15797 -0.045202 0.21392 
hat. -0.036948 0.30851 -0.088492 0.4248 0.43707 0.51403 -0.10791 0.12307 0.014419 -0.071522 0.29597 -0.2008 -0.51638 0.0058422 0.48719 -0.20848 -0.30988 0.22099 -0.44152 0.041768 -0.31801 -0.42819 -0.70607 0.11224 -0.19877 -0.053321 0.088706 -0.14101 -0.18435 -0.2201 0.15232 0.34272 -0.052187 0.16629 -0.52132 0.48558 0.11621 0.29056 -0.04771 1.3166 -0.04221 0.15915 0.060194 0.19553 0.29557 -0.039291 -0.076907 -0.18186 -0.01487 0.10285 0.22884 0.52219 -0.033464 -0.007554 -0.35363 0.285 -0.31569 -0.2382 -0.096809 0.010818 -0.08056 0.013096 -0.089023 -0.03732 0.24528 -0.074026 0.028386 -0.20997 0.33864 0.28539 0.050834 0.27202 -0.25689 0.43259 0.22027 0.1944 -0.3024 0.18384 -0.19502 -0.093665 0.10398 -0.22885 -0.056237 0.20624 0.1096 -0.23767 -0.13922 -0.48986 0.17586 0.59843 0.51111 -0.12676 -0.16131 0.064925 -0.024738 0.051822 0.12591 0.034044 0.010489 0.07627 
double 0.3076 0.12443 0.02606 0.17306 0.065607 -0.0020835 -0.15365 -0.22832 -0.57378 0.040856 -0.010888 0.00066733 -0.07881 -0.028205 0.3739 0.062661 -0.24214 0.13169 -0.19814 0.31993 -0.12199 -0.73613 0.062675 0.10364 0.0087007 -0.086862 -0.10252 -0.15679 0.0063752 -0.43094 0.044474 0.10173 -0.43828 -0.40072 -0.22238 -0.14236 -0.049371 0.31998 -0.0097214 0.29219 0.15954 0.044495 0.062536 -0.40138 -0.27365 0.0046965 0.043004 -0.19345 -0.32238 -0.062171 0.034294 0.79724 0.35141 0.031752 -0.41732 0.17223 -0.41402 -0.050802 0.022775 -0.26082 -0.39903 -0.3304 0.19595 -0.017258 0.44027 -0.17585 -0.091202 0.35755 -0.20643 -0.1645 0.0076647 -0.36235 0.048005 -0.19038 -0.085246 0.27571 0.32017 -0.65938 -0.089929 -0.5797 0.075548 -0.038824 -0.53011 0.32333 0.083824 -0.24021 -0.38755 0.10994 -0.26467 0.82789 -0.088977 -0.29096 0.10756 0.15212 0.064849 0.23748 0.072763 0.39921 0.14945 0.13405 
woman's -0.51451 0.39358 0.31303 -0.0027549 0.082618 0.26374 -0.24131 0.7356 0.026236 0.20296 -0.071321 0.0065227 -0.098283 0.45434 -0.48568 -0.15215 0.31403 0.16053 -0.057465 -0.096128 0.58114 0.27233 -0.17193 0.18738 -0.49252 -0.26653 0.22611 -0.16033 -0.65891 -0.12826 0.86514 0.068244 0.38713 0.47397 0.53598 0.21165 0.22844 -0.5915 -0.27244 -0.20796 -0.28355 -0.28446 -0.29102 -0.084752 -0.2323 0.47082 0.14921 0.61161 0.17161 -0.086365 -0.22488 -0.26809 0.15721 0.10478 0.010339 -0.045998 -0.14905 0.023115 -0.012127 -0.43869 0.37362 0.49982 -0.69323 0.15723 -0.14259 0.38982 -0.36087 -0.83978 0.10684 -0.075935 -0.10725 0.38843 0.64152 0.10725 -0.069757 0.38485 -0.13683 -0.88341 -0.65079 -0.56387 -0.17129 -0.041696 0.33069 -0.14285 0.49417 0.51863 -0.33484 -0.038685 0.51937 0.020634 -0.20751 -0.15945 -0.097426 -0.05835 0.26618 0.19415 0.19436 -0.11647 0.21764 0.030334 
pale 0.14572 0.043584 -0.093784 -0.12669 0.1567 0.55386 -0.069068 0.61312 0.25573 -0.022725 -0.29488 0.16142 -0.48704 -0.25236 -0.3401 0.44851 0.18073 0.4554 0.079059 0.0095619 0.98191 0.15385 -0.26606 0.23208 0.28114 -0.093602 -0.54947 0.052078 -0.099194 -0.09158 0.26145 0.124 -0.076764 -0.052648 0.063416 -0.12113 0.44555 0.36319 0.65484 0.018906 -0.7297 0.038969 -0.024605 -0.46457 -0.23107 -0.23611 0.11157 0.14721 0.19338 0.11277 0.17311 -0.22048 0.38869 -0.35663 -0.31916 0.1967 0.0018018 0.29535 0.2191 -0.18383 0.33817 0.11095 0.0057714 -0.13488 0.16034 -0.33228 -0.41219 -0.33261 -0.31096 0.24375 -0.16199 -0.068086 -0.24725 -0.19152 0.40552 0.23941 0.032729 -0.072386 -0.035961 -0.14732 0.20586 0.17122 0.0094285 -0.25973 0.2071 -0.14044 0.39071 -0.10779 0.077885 0.37508 -0.28635 0.28673 -0.053885 0.077784 0.13507 0.31957 -0.67739 -0.23658 -0.1689 -0.087833 
goatee 0.026591 0.43759 -0.12301 0.45318 -0.16482 0.082261 -0.033519 0.40486 -0.27845 -0.44541 -0.077282 -0.15567 0.16458 -0.14062 0.29593 0.54329 0.21635 0.50987 -0.32484 -0.39042 -0.33859 0.012654 0.099766 -0.38498 0.39869 -0.23066 0.16064 -0.48024 -0.18436 -0.64055 -0.16866 -0.032353 -0.39616 -0.318 -0.71203 0.108 0.21577 0.28282 -0.069429 0.33848 -0.29675 0.56495 0.055624 -0.016126 0.24169 -0.048437 0.39648 0.14176 -0.097362 0.093363 0.092444 0.14906 0.094759 0.51209 -0.21997 0.32092 -0.37258 -0.26362 -0.2259 -0.14681 0.35632 0.083898 0.13668 0.0099649 -0.21033 0.043135 -0.057039 0.41531 0.64095 0.14662 -0.12481 0.19914 -0.11803 0.069114 0.35658 0.1658 0.81281 -0.11027 -0.48348 -0.5769 0.14695 0.14025 -0.76621 0.044759 0.017398 -0.27583 -0.3202 -0.44984 0.35551 0.21698 0.13923 -0.13165 -0.26125 -0.069553 -0.23482 0.52962 0.35638 0.61976 0.44232 0.43509 
chined 0.26313 0.37431 0.31495 0.14932 0.019497 0.12669 -0.10024 0.099993 -0.16583 -0.55922 0.43681 0.18229 -0.14643 0.087031 0.30873 0.1393 -0.14837 -0.21366 -0.29145 -0.067926 -0.36174 -0.20593 0.20976 -0.47967 0.42303 -0.44657 -0.03287 -0.51681 -0.18938 -0.057917 -0.20294 -0.35596 -0.79708 -0.30892 -0.22067 0.48519 -0.055687 0.26764 0.23903 0.24553 -0.056 0.12516 0.16802 -0.1996 -0.17115 0.15276 -0.030785 -0.46597 0.20779 -0.21984 0.0033218 0.7326 0.55854 0.12323 -0.016015 0.48243 0.16637 0.010048 -0.3726 -0.29906 -0.33165 -0.17823 -0.34513 -0.29838 0.37027 -0.082548 -0.28932 0.08176 0.14692 0.24057 -0.031691 -0.22519 -0.0072677 0.009776 0.074545 -0.047204 0.12699 0.15147 0.21245 -0.1549 0.085947 0.04225 -0.12044 0.20032 0.045217 0.19188 0.028984 -0.037922 0.024936 0.4386 0.16242 -0.12663 0.12095 -0.038221 -0.30413 -0.16355 -0.40776 0.22575 -0.017778 0.32543 
eyeglasses. -0.19279 0.26107 0.24748 0.68522 0.2526 0.47383 -0.15704 0.14176 -0.15209 -0.10454 0.10105 -0.34517 -0.16245 0.38318 0.42983 -0.15519 -0.22006 0.31072 0.27934 -0.145 -0.64201 -0.43743 -0.42002 0.43489 0.20736 -0.014178 -0.18108 -0.58598 0.025737 -0.41332 0.2593 0.1557 0.22282 0.12799 0.10249 0.2694 -0.053688 -0.026237 0.19741 0.82736 -0.38691 -0.098733 -0.31669 -0.022954 0.414 0.14506 -0.24964 -0.16644 -0.19638 -0.052459 0.16121 0.78003 0.069644 0.34683 -0.36698 0.14363 -0.16027 -0.07293 -0.074611 0.18183 -0.25773 0.050083 -0.030226 -0.023439 -0.065641 -0.1152 -0.077013 0.23996 0.3957 0.41927 -0.33362 -0.22598 -0.17712 0.049458 0.57277 -0.19086 0.050768 0.098246 0.013481 -0.1311 -0.094598 -0.095899 -0.24052 0.24148 0.28025 -0.070944 -0.16073 -0.75434 -0.22326 0.063183 -0.027989 0.081466 -0.12031 0.068842 0.13972 0.29492 0.30656 -0.22204 -0.29747 0.13343 
man's -0.52433 0.60625 0.20549 0.51957 0.34857 0.96669 -0.22812 0.98183 -0.082866 0.27763 0.0049568 0.29357 -0.11371 0.082856 -0.50742 0.043116 0.026409 0.41253 -0.18093 -0.58988 -0.076987 0.26502 -0.33616 -0.023675 -0.26343 -0.3505 0.058932 -0.63399 -1.0711 -0.35291 0.6969 0.33179 0.37203 0.71662 0.46364 -0.013562 -0.039104 -0.54524 -0.15382 0.1242 0.093894 -0.36576 -0.40574 0.015312 -0.78755 0.89255 0.22376 0.16244 0.090036 0.23184 -0.39189 0.04092 0.24289 0.078263 -0.038235 0.037206 -0.17318 -0.13824 0.081129 -0.54085 0.07722 0.51112 -0.8901 0.22237 -0.59195 0.10603 -0.26701 -0.53825 0.59964 0.12562 -0.0037797 -0.0039287 0.53665 0.15499 0.35667 0.68696 0.044178 -0.86321 -0.59385 -0.54857 -0.30156 -0.16831 -0.37317 0.30732 0.2882 0.26625 -0.22525 -0.43951 0.55061 0.30685 -0.091231 -0.1486 -0.00065502 -0.39547 0.37617 -0.34409 0.60133 0.013805 0.48316 0.65699 
eyeglasses, -0.094782 -0.031938 0.29669 0.56928 0.19997 0.038841 0.10535 0.58253 -0.47177 -0.26959 -0.35476 -0.069796 -0.53796 0.31613 0.057146 -0.31534 -0.33323 0.25821 0.47059 0.040386 -0.38456 -0.71429 -0.1044 0.45197 -0.083881 0.10642 -0.12644 -0.57259 -0.049327 -0.36181 0.12488 -0.163 -0.35997 0.039207 0.04591 0.37444 -0.067156 0.14248 0.10007 0.40306 -0.086862 -0.18727 -0.18671 0.26613 0.3518 0.035541 0.085166 -0.12976 -0.12735 -0.20582 -0.020482 0.57145 -0.073837 0.2629 -0.24432 0.28955 0.23417 0.21792 -0.1753 0.0058665 -0.41085 -0.062719 -0.18243 0.314 0.29511 -0.13703 -0.11124 0.063856 0.27616 0.23439 -0.59624 0.036492 -0.022406 -0.35754 -0.16557 -0.26756 0.16183 0.12749 -0.11984 -0.35278 0.2031 -0.068538 -0.12449 0.46755 0.23094 0.2851 -0.242 -0.45996 0.17354 0.16069 0.1192 0.075152 -0.36474 0.070423 0.46817 0.50287 -0.12571 -0.04599 -0.047691 -0.10839 
mustache. -0.068028 0.48444 -0.16872 0.43829 -0.077631 0.41088 -0.34621 0.090991 -0.10883 -0.47046 0.26046 0.3441 -0.41065 -0.15875 0.22905 -0.1193 -0.53388 0.2009 -0.32144 -0.049974 -0.26386 -0.38098 -0.45361 -0.099042 0.4586 -0.062733 0.06446 -0.62598 -0.26572 -0.14368 0.32072 -0.18022 -1.0561 0.29786 -0.1556 -0.19211 0.082891 0.30978 -0.085209 0.46233 0.30941 0.35959 0.070692 0.031998 0.045532 -0.19784 0.078774 -0.067827 -0.20126 0.50255 -0.21908 0.70867 0.31625 -0.047056 0.23502 0.45602 0.33829 0.074109 0.052313 -0.26277 -0.0086568 -0.28152 0.14756 0.1279 0.22007 -0.019074 0.17821 -0.0028702 0.39612 -0.17939 -0.19393 -0.25591 -0.19145 0.057887 -0.03429 0.26123 0.4447 -0.71426 -0.10546 0.049189 -0.25865 0.039161 -0.54607 0.33028 0.23114 -0.096097 -0.31016 -0.20313 -0.0042108 0.12182 0.030247 -0.29524 -0.27943 -0.37969 0.053406 -0.072656 0.62656 0.18823 -0.12741 0.56606 
eyes. -0.2615 0.014852 0.46216 0.48833 -0.25536 -0.17701 0.063936 -0.4831 -0.22048 0.29859 -0.04434 -0.046177 -0.14474 0.14021 0.021198 0.28147 0.022186 0.1402 -0.024999 0.012748 0.061259 -0.52945 0.056135 -0.077846 0.79082 0.033148 -0.76029 0.013482 0.072096 -0.18508 0.14719 -0.082719 0.25391 0.41212 0.23 0.64558 0.4299 -0.10252 0.65649 0.038928 0.06522 -0.87535 -0.020789 -0.52639 0.092101 0.1244 -0.088039 0.65033 0.23824 0.2439 0.26299 0.50685 0.4172 -0.1166 0.050516 0.28568 0.032098 0.061867 -0.55996 -0.072791 -0.065955 -0.32368 -0.024147 0.33129 0.14863 0.6565 0.51635 0.34977 0.17263 0.17485 0.48098 0.27486 -0.21176 0.26692 0.019305 0.046032 0.28641 -0.028772 -0.32928 -0.58232 0.26396 0.47169 0.060357 0.29756 -0.28097 0.27474 0.27939 0.091517 0.31925 0.37038 -0.020625 -0.085224 -0.11932 -0.62273 -0.15347 0.52499 0.21994 -0.39057 -0.11575 -0.13854 
bald. 0.1111 -0.27119 -0.44552 0.35049 0.25897 0.22137 -0.40853 0.060493 -0.034014 -0.3711 0.29734 0.46888 0.0096482 -0.28008 -0.065231 -0.081204 -0.49234 0.42488 -0.70248 0.076344 -0.44752 -0.67593 0.017842 0.22532 -0.19486 -0.49221 0.19018 -0.24467 -0.58507 -0.70724 0.15191 0.50637 -0.31684 -0.26654 -0.44661 0.058987 -0.18893 0.45967 0.12467 1.0831 -0.31259 0.26553 0.40492 -0.21157 0.24149 -0.23217 0.10712 -0.073234 0.31759 -0.37475 -0.17306 0.48694 0.3838 0.62275 -0.44172 0.32057 0.35298 0.53549 -0.15036 -0.3465 -0.22525 0.30414 -0.65238 0.070241 0.47877 0.17924 -0.38977 0.18798 0.35506 0.28045 -0.10115 -0.036235 -0.14858 -0.043285 -0.42172 -0.13511 0.58249 -0.44555 -0.59729 -0.38502 -0.030072 -0.1439 -0.16243 0.12592 -0.21338 -0.040622 -0.035376 -0.32736 0.011161 0.64727 0.61827 -0.43426 0.13481 -0.1908 0.072862 -0.57256 0.53744 0.72383 -0.14751 0.076276 
lips. -0.34208 0.30585 0.26445 0.40969 -0.38641 0.017082 -0.03817 0.072003 -0.16766 0.1577 -0.30691 0.23215 -0.24474 0.73395 -0.065059 -0.31001 0.05921 0.49429 -0.15584 -0.078936 0.4024 -0.39516 0.0302 0.29249 0.5739 0.72565 -0.0585 -0.14957 -0.14817 -0.11193 -0.33053 0.04059 0.12448 -0.41972 0.54557 0.43403 0.018617 -0.21536 -0.037486 0.10441 -0.085926 -0.83631 -0.16426 -0.62491 -0.054832 0.32105 0.25314 0.086774 -0.079458 0.29979 0.37404 0.22527 -0.084554 -0.10986 -0.020731 0.09915 -0.31398 0.00057387 -0.47192 -0.37777 0.31568 -0.28926 0.14244 -0.10576 0.19638 0.44008 0.19169 0.72243 -0.075203 0.10661 0.19024 0.66178 -0.064418 0.29917 0.1597 0.19786 0.30591 -0.096731 -0.32622 -0.31415 0.55887 -0.03078 0.60686 -0.25735 -0.19485 0.026909 0.28876 -0.12645 0.31312 0.03596 0.047917 0.088861 -0.37691 -0.10861 0.026243 0.27124 0.027844 -0.85611 -0.67434 0.19665 
skin. 0.13951 0.12946 0.62004 0.265 0.055805 0.98598 -0.17238 0.31747 -0.067181 -0.32764 -0.022835 -0.15451 -0.35074 -0.013818 0.04315 0.0092481 0.37539 0.50021 0.59602 -0.54744 0.14751 -0.06617 0.093401 0.60774 0.065863 -0.0087171 0.062591 0.35735 -0.17981 -0.15079 0.15045 -0.20037 0.50338 0.19936 -0.14385 -0.54266 0.030429 0.62918 0.38705 -0.090949 -0.39713 -0.3338 0.10237 -0.33864 -0.017052 -0.2218 -0.37367 -0.69044 -0.078701 -0.33931 0.15145 -0.43926 0.045907 -0.37137 0.088924 0.75544 -0.2865 0.030238 0.18724 -0.48841 -0.084293 -0.042109 -0.29325 -0.27191 0.10919 0.11264 0.12454 -0.44222 0.13164 0.19088 0.30713 0.14009 0.25835 0.35365 -0.060445 0.37932 0.67552 -0.042495 0.0019933 -0.22648 0.61938 0.10705 0.008871 0.22265 0.4065 -0.35059 0.27588 0.40254 0.070195 0.45011 -0.033802 0.27742 0.21508 -0.31931 0.4109 0.30708 0.053106 -0.18649 -0.084282 0.20459 
skin -0.17367 0.098108 0.37835 0.12702 -0.11522 0.61266 -0.31856 -0.17585 0.347 -0.42038 -0.24044 -0.2797 -0.43108 0.0337 0.26819 -0.12135 0.86462 0.16807 0.50623 -0.13415 0.34617 0.17808 0.064734 0.77527 0.28158 -0.015952 0.82577 0.40475 -0.24784 0.04886 0.23448 -0.35844 0.19949 0.13834 0.19231 0.0021017 0.18701 0.047249 0.10147 -0.047622 -0.50254 0.50004 -0.16351 -0.14215 0.29032 -0.15915 0.14971 -0.29538 0.016539 -0.37903 0.097834 -0.42171 0.17311 -0.07736 0.20006 0.26988 0.060724 0.21822 0.13555 -0.17228 -0.038801 0.20573 -0.14883 -0.31931 0.27648 -0.014034 -0.18614 -0.51947 -0.52787 0.011402 0.22777 0.30715 0.14274 0.054146 -0.13544 0.34615 0.53822 -0.33108 -0.025819 -0.020411 0.36235 0.78941 0.11678 -0.406 0.73433 0.079533 0.32035 0.38605 0.41401 0.42832 0.0076058 0.02708 0.34557 -0.2554 0.59553 0.46851 -0.11999 -0.16286 -0.086457 -0.13313 
goatee. -0.24439 0.30751 -0.025038 0.29357 0.083103 0.76311 -0.20203 0.00080885 -0.077583 -0.46507 -0.028064 0.0095838 -0.035235 -0.01651 0.088821 0.33464 -0.28001 0.55222 -0.47355 -0.040423 -0.16539 -0.062554 0.16257 -0.42379 0.42926 -0.0818 0.27688 -0.6893 -0.29998 -0.28968 0.030423 -0.27832 -0.61095 0.1372 -0.15693 0.30865 0.24554 0.4243 -0.11729 0.30186 0.039202 0.35269 0.22284 0.095376 -0.0013775 -0.067653 0.18584 -0.12632 -0.29808 0.71339 -0.15864 0.64646 0.073143 0.19868 0.0077042 0.43861 0.11356 0.13176 -0.042404 -0.071577 0.32498 -0.20655 -0.00079481 -0.053631 0.26035 -0.069003 -0.084869 -0.078967 0.61162 -0.32582 -0.20906 -0.10621 -0.23178 0.11164 0.13312 0.21776 0.78885 -0.35276 -0.012449 0.091673 -0.061272 -0.097817 -0.71452 0.18547 -0.10376 -0.21931 -0.38709 -0.57561 0.045009 0.18988 -0.12722 -0.049544 -0.47886 -0.31141 0.2104 0.27358 0.67692 0.31636 0.49887 0.22662 
gray -0.11249 0.11937 0.056523 0.23433 -0.51415 0.3757 0.018365 0.23756 -0.75857 0.1768 -0.094643 0.54937 -0.41039 -0.293 0.34444 -0.032482 0.072809 -0.29037 -0.32605 0.12827 -0.38899 -0.21203 0.32909 0.27497 0.28177 -0.1136 -0.09531 0.05339 0.020162 -0.18054 -0.38102 -0.087748 -0.522 0.14737 -0.19176 0.056215 -0.39445 0.14911 0.29884 0.52535 0.042445 0.094028 0.42337 -0.54903 -0.3816 -0.12172 -0.22409 -0.28511 -0.19217 -0.32878 0.18848 0.10024 0.37115 -0.0046397 -0.30776 0.21726 0.13215 0.56501 0.16742 -0.5044 -0.43582 -0.0041183 -0.34686 -0.48767 0.0035419 0.019554 -0.29693 0.30686 -0.098678 0.84531 0.069492 -0.045294 -0.079221 -0.13288 0.075804 -0.12831 -0.22746 -0.39137 -0.72253 -0.035805 -0.17817 0.013296 0.021453 0.5958 -0.039354 -0.05594 0.021812 -0.46694 0.11548 0.62425 -0.2953 -0.34827 -0.30396 0.30963 0.42386 0.044408 0.24491 0.52676 -0.040181 -0.063347 
necklace. -0.35057 0.72373 -0.039963 0.44965 0.16686 0.19973 -0.073801 0.07872 -0.13491 -0.15003 0.36421 -0.17026 -0.32815 0.22287 0.69988 -0.11105 0.023152 0.035494 -0.14848 0.13433 0.010516 -0.076419 -0.5683 0.078287 -0.51476 -0.20427 0.045496 -0.022971 -0.089219 -0.020439 0.40583 -0.0058644 -0.013126 0.1006 -0.2666 0.43387 0.062233 -0.089272 0.084484 0.70498 0.050047 0.0097429 -0.16344 0.14984 0.016067 0.16617 -0.13074 0.14923 -0.28779 0.016763 0.16595 0.41584 0.010278 -0.083806 -0.22707 0.16454 -0.63085 -0.037438 0.010983 0.032714 0.17449 0.19344 -0.17002 -0.20502 0.11306 0.013417 0.12823 -0.29248 0.028006 0.30487 0.0072919 0.53487 -0.26604 0.33767 0.2162 0.42341 -0.46929 0.24571 0.1751 -0.20172 0.19935 -0.25695 -0.1271 0.17885 0.18781 -0.14783 -0.04335 -0.30531 0.45719 0.41258 0.24464 0.17323 -0.20868 -0.020572 -0.044381 0.14407 -0.02971 -0.2562 -0.0062686 -0.2322 
earrings. -0.29938 0.41465 0.19928 0.057593 -0.048193 0.20615 -0.03704 -0.09628 -0.0095933 -0.017468 0.37976 -0.59695 0.074371 0.29904 0.60089 -0.30153 -0.33832 0.16031 -0.05053 -0.12578 -0.34534 -0.2226 -0.24998 0.069546 -0.027587 -0.20724 0.36853 -0.1633 -0.10885 0.1123 0.59438 -0.048422 0.46513 -0.16109 -0.065166 0.26915 -0.022358 -0.1151 0.14931 0.70995 -0.40006 -0.010669 -0.20626 -0.024749 0.17819 0.17945 -0.3382 -0.22876 -0.24665 0.33138 0.022695 0.57654 0.19876 0.085483 -0.60755 0.095317 -0.48812 0.036486 0.062094 -0.14824 0.28395 0.07369 -0.25006 -0.258 0.3534 0.0078235 -0.27315 -0.24877 -0.11927 -0.0009542 -0.10171 0.065414 0.060935 0.4732 0.56339 0.32707 -0.35057 0.23459 0.038424 -0.084156 -0.24178 0.055931 0.018257 0.2627 0.054249 -0.027791 -0.15783 -0.57776 -0.00843 0.13001 -0.10762 0.21534 0.094253 -0.16375 -0.10762 -0.17646 0.11783 -0.37914 -0.094058 -0.080507 
shadow, 0.20648 0.67367 0.28107 0.048041 -0.019125 0.52932 -0.58528 0.13442 0.033879 -0.34025 0.16333 -0.39239 0.17445 0.18368 0.22398 0.053642 -0.26518 0.49435 -0.058066 -0.79046 -0.23357 -0.29461 -0.23635 0.091532 -0.079636 -0.43242 -0.29859 -0.097019 -0.036893 -0.51974 -0.28602 0.36419 -0.74865 -0.057745 -0.27661 -0.52558 0.067281 -0.1897 -0.00021114 0.70577 0.073832 0.28548 -0.50129 -0.209 0.73826 -0.5447 0.32532 0.30281 -0.21225 0.15329 -0.17687 0.47266 0.19448 0.055845 -0.24168 0.56834 0.39196 0.017446 -0.16832 -0.27815 0.30168 -0.068329 -0.15031 -0.020666 -0.32077 0.13527 0.2579 0.80011 0.04233 0.27444 -0.18152 0.17332 0.38709 -0.20626 0.11907 0.087123 0.091189 -0.005625 -0.27185 -0.46699 -0.067989 -0.023581 -0.46062 0.02338 -0.056371 -0.12138 -0.14266 -0.047012 -0.044019 0.1516 0.055001 -0.34694 0.12033 -0.20271 -0.43959 -0.093047 0.1092 0.28569 -0.15439 0.16688 
mustache 0.21315 0.52479 -0.35182 0.83599 -0.27671 0.20641 -0.41231 0.4977 -0.40241 -0.49126 0.56026 0.49019 -0.36012 -0.36388 0.30937 0.061741 -0.33756 0.3665 -0.19668 -0.47771 -0.37373 -0.0038584 -0.70027 -0.26725 0.34068 -0.18469 -0.40203 -0.31572 -0.019855 -0.12567 0.10748 -0.042416 -0.67486 0.24585 -0.24229 -0.55904 0.14187 0.024999 0.12473 0.16196 0.051585 0.55939 -0.23197 0.053053 0.47638 -0.11503 0.097916 0.36942 0.11765 0.20939 -0.16041 0.4401 0.33816 0.20883 0.27588 0.38006 0.11754 -0.42261 -0.092147 -0.022232 0.42418 0.048516 0.23627 -0.069773 -0.083529 0.083407 0.47379 0.3831 0.2872 0.11026 -0.26794 0.016949 -0.17583 0.10779 -0.0052568 0.31583 0.56689 -0.68965 -0.45357 -0.03025 -0.2329 0.37002 -0.60901 0.026137 0.22578 -0.15998 -0.25071 -0.20204 0.39218 0.22668 0.30129 -0.21823 -0.19291 -0.058429 0.022621 0.20745 0.5827 0.057843 -0.38885 0.65928 
shadow 0.225 0.53943 0.04943 0.0084366 -0.1203 0.49675 -0.26223 0.23622 -0.18674 -0.062251 -0.010133 -0.26597 0.43077 -0.10792 0.21978 0.4172 0.029039 0.30742 -0.20217 -0.71539 -0.44731 0.24972 -0.05104 -0.1789 -0.13963 -0.28511 -0.3251 -0.2439 -0.17219 -0.71952 -0.34372 -0.035393 -0.34599 0.018239 -0.42322 -0.53198 0.15052 -0.12329 -0.16996 0.50768 -0.10552 0.38277 -0.18421 -0.12291 0.47128 -0.29924 0.62319 0.40615 -0.37705 0.41496 -0.047474 -0.020541 -0.055833 0.12612 -0.30689 0.21575 0.073871 -0.10799 -0.22126 -0.24015 0.48314 -0.095849 -0.31133 -0.14787 -0.569 -0.012322 0.0033493 0.75837 0.48805 0.34118 -0.23402 0.40262 0.098644 -0.13906 0.50178 0.10174 0.7356 0.070707 -0.23986 -0.64809 0.019639 0.47726 -0.71524 -0.00046337 -0.026056 -0.061215 -0.083908 -0.47569 0.22614 0.24962 0.23499 -0.030477 -0.20828 -0.14693 -0.2495 0.40302 0.11282 0.29442 0.36139 0.47114 
of -0.11376 -0.12853 0.32608 -0.32133 0.5037 -0.3331 0.19469 -0.22652 -0.086706 0.71465 0.21927 -0.11508 -0.091212 0.51746 -0.31259 0.011504 -0.12353 0.26749 -0.12223 -0.76388 0.22157 -0.18496 -0.21105 0.30448 0.0077939 0.028496 0.008725 0.22981 -0.57924 0.37677 0.1086 -0.022871 0.12983 -0.28789 -0.27029 0.15679 0.054144 -0.48827 0.31001 0.94802 -0.3489 0.90227 -0.057127 -0.40225 -0.023292 0.16081 -0.10848 -0.29853 0.54666 0.10003 0.26607 -0.30346 -0.15039 0.30426 -0.1809 -0.19708 0.41478 0.19375 -0.70722 0.338 -0.089056 -0.018934 0.17396 -0.55113 0.10396 0.29921 -0.012877 -0.0093713 0.64348 0.22701 -0.37406 -0.081494 -0.057915 0.036827 -0.31087 0.24625 0.29436 -0.43001 0.35654 0.34675 -0.11302 0.19106 -0.23722 0.47381 -0.25577 -0.48989 -0.33901 0.72672 0.39604 0.0080707 -0.47982 -0.20295 -0.32551 0.034016 0.070155 0.29881 -0.49755 -0.47949 0.019971 0.53145 
shades 0.21416 -0.091649 -0.12319 -0.56318 0.37635 0.088964 -0.069391 -0.42174 -0.068487 0.19902 0.13844 -0.00039633 0.54663 0.3936 0.42058 0.31786 -0.46987 0.09283 -0.13848 -0.96382 0.27343 -0.21354 -0.33497 0.31565 0.17258 0.16614 0.026586 0.16555 -0.1329 -0.019864 -0.22119 0.1446 -0.031394 -0.65575 0.0025687 0.56866 -0.9749 -0.30461 0.52849 0.30501 -0.28149 0.59209 0.028434 -0.24371 -0.22925 -0.22875 -0.14178 -0.011033 -0.12812 0.044021 0.19799 -0.21172 -0.31231 0.59957 0.25648 -0.01394 0.16067 0.47088 -0.35553 0.35093 0.049688 -0.042582 -0.11909 0.073208 -0.12427 0.39046 -0.49514 -0.10698 0.66247 0.20194 -0.067532 0.11576 -0.089481 -0.084882 -0.16726 0.51574 -0.075614 -0.50094 0.39774 0.0024928 -0.019456 0.31082 -0.38115 0.62837 0.044196 -0.061716 -0.080366 0.38467 0.2992 0.24085 -0.34922 0.38061 -0.43199 -0.052226 -0.013879 0.78369 -0.14075 -0.47577 -0.6729 0.22864 
smiling 0.11013 -0.18394 0.35595 -0.1304 -0.2298 0.19168 -0.33567 0.48166 -0.070326 0.017602 0.017155 -0.16955 -0.56687 -0.02447 0.070432 0.67854 -0.096942 0.1211 0.018593 -0.063986 0.27395 0.51199 -0.18657 0.20204 -0.058679 0.061678 0.083426 -0.27691 -0.41874 -0.14842 0.035843 0.33436 0.10639 0.035451 0.15264 -0.25441 0.32653 0.34909 0.44591 -0.15902 -0.14088 0.055447 0.30357 0.010718 -0.055702 -0.044673 -0.0027202 -0.055316 -0.60285 0.034259 0.51257 -0.49551 0.35017 -0.052592 0.025855 0.3396 0.26856 -0.088039 0.19261 -0.28536 -0.024317 -0.43984 -0.26268 -0.35763 0.97084 0.12585 -0.1964 -0.35387 -0.16756 0.32436 0.033359 -0.043721 0.49036 0.25017 0.22731 0.085244 -0.31444 -0.24509 0.024698 -0.10659 0.27275 0.36101 -0.069596 -0.2688 0.32473 -0.25323 -0.021632 0.38922 0.18525 0.56343 -0.18635 -0.1877 -0.14635 -0.023423 0.11404 0.19048 -0.12616 -0.57266 -0.33599 -0.023693 
chin. -0.041935 0.64813 0.4045 0.47962 0.11707 0.81281 -0.10987 0.84623 -0.39586 -0.5293 0.55619 0.36726 -0.46755 0.13079 0.31387 -0.061848 -0.0028641 -0.15783 -0.39144 -0.14949 -0.14901 -0.26813 -0.16946 -0.35937 0.52246 -0.33484 -0.16552 -0.83908 -0.19626 -0.34008 0.1579 -0.0445 -0.76962 -0.028413 -0.4303 -0.12528 -0.043297 0.0023086 0.15806 0.22968 -0.46103 -0.18544 0.16369 -0.13407 -0.24193 -0.017865 -0.34748 -0.29206 -0.19293 -0.61746 -0.12123 0.39934 0.54712 -0.45053 0.033289 0.68246 -0.2046 -0.15191 -0.38036 -0.44846 -0.10681 0.13719 -0.20745 -0.065047 0.11149 0.23866 -0.2274 0.11999 0.38683 0.66069 -0.23595 -0.23806 -0.13531 0.36664 0.3573 -0.31828 0.079174 -0.044572 -0.060881 -0.68241 -0.061578 0.021949 -0.049371 0.49312 0.054433 0.0043162 -0.2751 -0.032887 0.051144 0.11056 0.29343 -0.10818 0.36876 -0.20956 -0.40168 0.038934 -0.18367 0.26872 0.14369 0.47316 
blond. -0.5316 -0.24929 0.47366 -0.48955 -0.030825 -0.10556 0.35687 -0.33282 0.037155 0.077181 0.43525 0.57986 -0.069759 0.24495 -0.14722 0.10154 -0.18605 -0.27442 -0.69934 -0.19127 -0.037409 -0.22273 0.13097 0.42513 -0.361 0.095399 -0.13198 0.46453 -0.51052 0.22904 -0.071379 0.41822 -0.10667 -0.40184 -0.028491 -0.047454 -0.64697 -0.13852 0.36743 0.70336 -0.68863 0.54748 -0.10897 -0.31626 0.3867 -0.31704 -0.088906 0.40851 -0.15905 -0.21116 0.11126 -0.19969 -0.015962 0.35038 0.10849 -0.11793 0.22869 1.3488 -0.34817 0.7396 -0.10876 0.66786 -0.18633 -0.59374 0.32593 0.25548 -0.032977 -0.11024 0.48731 0.36215 -0.043719 0.1491 0.15661 -0.162 -0.077983 0.40966 0.16115 -1.0254 0.29261 0.0303 -0.18763 -0.13938 -0.082592 0.66483 -0.12366 -0.16978 0.1147 0.47233 -0.091523 0.3287 -0.10211 0.12391 -0.3179 0.057415 0.26013 0.40447 -0.22009 -0.42837 0.25706 0.36427 
hat, 0.069571 0.17406 -0.24756 0.45081 -0.030407 0.0080085 0.037476 0.58296 -0.30973 -0.13573 -0.031185 -0.13819 -0.60721 -0.27332 -0.25457 -0.25661 -0.21867 -0.086523 0.12402 0.085324 0.020957 -0.50645 -0.46001 0.38383 0.028082 0.6006 -0.0051295 0.079011 -0.21915 -0.0051021 0.078012 0.054523 -0.017681 -0.01367 -0.61245 0.38276 0.085027 0.46732 0.0057694 0.95464 -0.20273 0.27167 -0.056331 0.35171 0.31577 -0.29484 0.28407 0.20201 0.022914 -0.23316 -0.0073294 -0.18654 0.010832 0.040069 -0.25352 0.062381 -0.023218 0.35334 -0.15475 -0.14178 0.252 0.19689 -0.13951 0.83158 0.4578 -0.028084 0.037324 -0.15948 -0.10576 0.21237 -0.58334 0.52503 -0.19357 -0.30725 -0.31527 -0.29442 -0.19179 0.024363 -0.20192 -0.46617 0.20665 -0.13094 0.14891 0.50809 0.080083 0.21016 -0.17457 0.041221 0.45289 0.40062 0.78853 -0.10039 -0.22557 -0.16302 0.22837 0.23608 -0.19525 0.37208 0.21912 0.065821 
hat -0.18788 0.1411 -0.17992 0.48269 0.27056 0.41819 -0.11108 -0.14234 -0.18179 0.28737 0.18023 -0.21608 -0.35071 0.16615 -0.16048 -0.078562 0.16753 -0.27135 -0.37947 0.25561 0.40922 0.19146 -0.18499 0.020974 0.19762 -0.084941 0.41322 0.21395 -0.12822 0.26476 0.47181 0.10887 0.15374 0.30915 -0.062093 0.39723 0.31711 -0.028427 -0.12668 0.99914 -0.50458 0.31348 -0.23401 0.32201 0.26492 -0.13692 -0.011365 0.33052 0.037883 0.18281 -0.017892 -0.022432 0.035916 0.050535 -0.026059 -0.086075 0.059471 -0.069422 -0.1084 0.28434 0.14538 0.14621 -0.034912 -0.023365 0.15336 -0.083072 -0.16889 -0.43074 -0.36068 0.0063914 -0.37493 0.85591 -0.19284 -0.082442 0.032199 0.15828 -0.32257 -0.22215 0.44475 0.051307 0.051677 0.053077 0.085626 -0.48298 0.31903 0.022145 0.054049 -0.15867 0.039536 0.30166 0.54907 -0.076972 -0.11893 0.095083 0.41694 0.33052 0.018596 -0.19028 -0.067053 -0.57759 
black. -0.37361 -0.025885 0.67233 -0.15843 -0.15347 0.24809 0.35506 -0.57317 0.13451 0.13724 0.53388 0.43731 0.021536 0.032692 -0.11652 0.092195 -0.32126 -0.12874 -0.67357 -0.26786 -0.07017 -0.24258 -0.089027 0.27052 -0.29842 -0.0063383 -0.30041 0.16721 -0.39112 0.099644 -0.2942 0.58722 0.26393 -0.61199 -0.077943 -0.27407 -0.65566 -0.43036 0.45696 0.60868 -0.81081 0.81667 -0.1931 -0.12072 0.28718 -0.13359 0.26017 0.38895 0.0066147 0.080087 0.13287 -0.081686 -0.12143 0.67589 0.15754 -0.18375 0.28351 1.125 -0.35617 0.63548 0.16022 0.59692 -0.20925 -0.58423 0.17041 0.080346 0.099697 0.086112 0.73441 0.0011436 -0.071499 0.088104 -0.065023 -0.16593 -0.051035 0.49123 0.22529 -0.75845 0.13422 0.27397 -0.33855 -0.21883 0.043999 0.53072 -0.30553 -0.18837 0.23772 0.32914 0.098439 0.11106 -0.13507 0.36071 -0.22953 0.38444 0.12516 0.26876 -0.19365 -0.25452 0.2258 0.43892 
cheeks. 0.22102 0.075899 -0.20346 0.13585 0.29043 0.083415 -0.20442 -0.0091865 -0.71191 -0.26114 0.1993 0.1545 -0.38066 -0.2918 -0.54361 0.084784 -0.24419 -0.26792 0.055189 -0.36113 -0.29122 -0.040552 0.37329 -0.050351 0.063368 0.22304 -0.29427 -0.047528 -0.15239 -0.085787 -0.13672 -0.67592 0.14969 -0.091013 -0.37229 -0.30152 -0.42066 0.26669 0.047923 0.30543 0.324 -0.36241 0.22068 0.0052679 -0.46753 -0.3625 -0.41082 -0.13132 0.076771 -0.056897 0.25723 0.068212 0.14323 -0.079435 -0.042986 -0.28403 0.17185 0.035522 0.27462 -0.085333 -0.51389 -0.16545 0.012646 0.049635 -0.50649 0.051694 -0.045306 -0.28296 -0.00098696 0.086763 -0.017868 0.078679 0.16773 -0.20813 0.32559 0.1886 0.44889 -0.3939 -0.23955 -0.41272 -0.043164 0.031394 0.28486 0.59043 0.58155 0.0049914 -0.19711 0.38977 -0.37745 0.21713 0.068361 0.34628 -0.58042 0.22235 -0.36669 0.087651 -0.79911 0.060359 0.11159 0.53116 
eyeglasses -0.31261 0.054965 0.37359 0.43945 0.1685 0.27637 0.002683 -0.069759 -0.27534 0.11475 -0.22103 -0.42218 -0.16941 0.56798 0.10728 -0.22638 0.20596 -0.026896 0.20552 0.01846 -0.019781 -0.064165 -0.053678 0.35167 0.20572 0.045627 0.08661 -0.24369 0.0061759 -0.01412 0.38563 -0.11309 0.31329 0.20671 0.51868 0.56068 0.075981 -0.20572 0.076943 0.48183 -0.53022 0.18604 -0.41432 0.26891 0.35283 0.12189 -0.0091496 0.22518 -0.23105 0.12442 0.092675 0.35468 -0.066059 0.39579 -0.20127 -0.038134 0.079902 0.0089537 -0.029777 0.46837 -0.048754 0.22658 -0.096953 0.025632 -0.03667 -0.060825 -0.38715 -0.1199 -0.039194 0.18114 -0.44931 0.16944 -0.05045 -0.17849 0.18142 -0.099206 0.039694 -0.24862 0.33066 -0.12154 0.037658 0.053685 0.0045384 -0.078098 0.34576 0.17079 -0.13577 -0.29213 -0.096928 -0.069632 -0.1492 0.18574 -0.2025 0.052821 0.3095 0.51674 0.069874 -0.59129 -0.38271 -0.32792 
skin, 0.18918 0.10664 0.22654 0.12755 0.059761 0.12471 -0.63729 -0.30393 -0.035699 0.24698 -0.12467 -0.08095 -0.28002 0.30955 -0.15734 -0.095076 0.26571 -0.79547 0.084924 0.33995 0.032372 0.29115 0.39779 0.2303 0.27285 0.24915 0.80836 0.33236 -0.38783 0.062418 -0.0040396 -0.26779 -0.0025805 0.25712 0.10421 0.27553 -0.079964 0.13171 0.0075426 0.19001 0.053025 -0.063124 0.22395 0.039209 0.10662 -0.30379 0.14069 -0.16233 -0.25374 -0.35771 0.19881 -0.40122 0.12969 0.015256 0.00053 0.21263 -0.21764 -0.15162 -0.11844 -0.26537 -0.49519 -0.069413 -0.16847 -0.12306 0.19745 -0.26867 -0.14167 -0.16503 -0.58853 0.0015779 0.083633 0.021563 0.39012 -0.17768 0.019636 0.096957 0.32193 -0.21888 0.067 -0.66858 0.20739 0.79153 0.00038737 0.016725 0.36701 -0.17621 0.0047564 0.30561 -0.094287 0.19926 0.22562 -0.17689 0.17484 -0.105 -0.0064311 0.058215 -0.24065 -0.27562 -0.093071 -0.10257 
brown. -0.18384 -0.04264 0.41755 0.010717 -0.071888 0.29466 0.080096 -0.26068 -0.42864 0.086437 0.14784 0.46573 0.20584 -0.093926 -0.072832 -0.045324 -0.18427 -0.019604 -0.35065 -0.67271 0.088136 -0.45987 -0.07525 0.38981 -0.13438 -0.051065 -0.22818 -0.10262 -0.42032 -0.13884 0.060764 -0.028383 0.10864 -0.34672 -0.037888 -0.18682 -0.68859 0.068258 0.57515 0.58691 -0.36364 0.037545 0.06726 -0.27989 -0.13721 0.16773 -0.051036 -0.15817 -0.11259 -0.14138 0.17616 0.20011 0.078811 0.10715 0.0054265 0.22416 0.29619 0.48853 -0.15406 0.26701 -0.16644 0.20712 -0.22163 -0.44785 -0.054955 0.31669 -0.24735 0.079669 0.82927 0.4066 0.12002 -0.078607 0.27902 0.018694 0.01636 0.29613 -0.17524 -0.61341 0.0065053 0.047528 -0.20477 -0.07721 -0.28062 0.5677 -0.065286 -0.29939 -0.11427 -0.075033 0.09646 0.20206 -0.23675 0.13834 -0.22129 0.073576 0.14071 0.1952 0.21841 -0.33951 0.086605 0.76164 
necktie -0.092134 0.19207 -0.013513 0.34931 0.54879 0.22098 -0.2525 -0.30206 0.20923 0.11406 0.14421 -0.12635 -0.15008 0.26105 0.31945 0.080293 0.078153 -0.11105 0.14582 -0.025943 -0.18786 0.20656 -0.17176 0.30754 0.27106 -0.04936 0.06417 -0.19998 -0.04988 -0.2312 0.10654 0.0020384 0.15111 0.12966 -0.013253 0.061996 -0.020643 0.20474 0.033147 0.50164 -0.24345 0.13854 -0.1681 0.15626 0.076962 -0.035473 -0.085777 0.039842 -0.26926 -0.095159 0.019638 0.19893 0.30634 0.2993 -0.30572 0.0472 -0.094451 -0.13583 0.057307 0.11187 -0.16594 0.17936 -0.082307 -0.0071402 -0.18177 -0.21725 -0.061338 0.25058 -0.10238 0.16282 -0.22138 -0.1203 -0.16954 0.024876 0.86445 0.11996 0.12485 -0.067908 0.15556 -0.022432 -0.21292 0.33562 -0.51635 0.11011 0.25412 -0.13116 0.13262 -0.42484 0.13805 0.11987 0.028546 -0.090915 0.074253 0.015321 0.18939 -0.035953 0.060815 -0.25285 -0.04532 0.093581 
necklace, -0.17159 0.37313 -0.10477 0.37735 0.10445 0.09796 -0.055948 0.014181 -0.18696 0.0072158 0.23563 -0.087775 -0.15575 0.091681 0.29054 -0.014132 0.08041 -0.14646 -0.22233 0.14879 0.089671 0.059973 -0.28205 0.0042163 -0.20748 -0.14844 0.16908 -0.00044801 -0.11276 0.0018687 0.33346 -0.11364 -0.082009 0.12975 -0.25182 0.30246 0.036795 -0.045602 -0.026768 0.50565 -0.026637 0.10069 -0.16144 0.21931 0.065684 -0.0047308 -0.063298 0.19559 -0.19175 -0.010187 0.041563 0.27649 0.11982 0.029322 -0.12366 0.13393 -0.28762 -0.049497 0.059008 0.019473 0.031393 0.23112 -0.083453 -0.083875 0.034699 0.0040265 0.0025795 -0.25339 -0.11848 0.1522 -0.12539 0.60902 -0.12681 0.077691 0.12433 0.33817 -0.30956 0.011896 0.12925 -0.22196 0.24931 -0.064344 -0.2013 -0.010528 0.24845 -0.039131 -0.069238 -0.10981 0.27841 0.27473 0.21457 0.002716 -0.17807 -0.017646 0.0022148 0.11907 -0.071596 -0.21888 0.085357 -0.21771 
